EPOCH 0
-0.421796 -0.143882 0.309967 0.220056 -0.190445 0.146948 0.341846 0.327993 -0.355009 -0.392509 -0.442271 0.272740 -0.249014 0.228905 -0.004924 0.079493 0.297466 0.328217 0.005171 0.049553 0.315074 -0.362621 -0.497908 -0.460164 0.293964 0.374681 0.488152 0.128544 0.427628 0.422180 -0.101270 -0.494167 -0.221702 -0.291303 0.225888 0.087852 0.355644 0.067735 -0.084154 -0.499365 0.175226 -0.026425 0.273375 0.426212 -0.297520 -0.231549 0.005705 0.499947 -0.403332 -0.489125 0.049499 0.411742 -0.351745 0.051591 0.451578 0.442219 -0.073728 0.439730 0.070763 -0.146099 0.361910 0.469493 -0.140266 -0.359792 -0.321811 -0.414378 0.228060 -0.466166 0.153357 -0.356094 -0.465531 -0.171417 0.117481 0.307844 -0.245205 0.319961 -0.423705 0.260500 0.319907 -0.327036 0.271375 -0.130594 -0.415294 0.419630 0.420998 -0.463716 0.361849 -0.152730 0.476014 -0.067388 0.201171 0.337924 -0.097896 -0.439096 0.478132 0.080294 -0.353474 0.206192 0.114127 0.299883 0.350098 0.148596 -0.371533 -0.032421 -0.043560 -0.116738 -0.212461 0.032736 -0.356239 -0.392554 0.205700 0.415136 -0.023147 0.290405 0.334766 -0.102149 0.326689 0.196615 0.245120 0.302704 -0.370773 -0.053709 0.140628 0.031331 0.007196 0.118760 -0.388376 0.068989 -0.190812 0.225752 -0.046395 -0.324950 -0.125652 0.082072 0.142629 0.330788 0.465334 0.430168 -0.136476 -0.390905 -0.462385 -0.430776 -0.475769 0.014468 0.359629 0.358998 0.412318 0.186319 0.055612 0.157439 -0.010978 0.184839 -0.396270 -0.370350 -0.283830 0.031710 0.199541 -0.172206 -0.235353 -0.426637 -0.446454 0.218253 -0.251587 -0.072106 -0.199675 0.391043 -0.241317 -0.234341 0.321211 0.122207 -0.125247 0.358826 0.191431 -0.101015 -0.126707 0.051060 -0.242018 -0.214389 -0.262621 0.313595 0.443050 0.226402 -0.005507 -0.543471 0.332800 0.214604 0.157705 0.104463 -0.457602 0.422352 0.177826 -0.404056 0.140605 0.426239 0.023838 0.440930 0.317282 0.282521 -0.293411 0.138492 -0.095272 0.081342 -0.002682 -0.403841 0.480327 0.370611 0.147219 -0.261691 -0.343778 0.384599 -0.481990 -0.496890 0.110606 0.050337 -0.353948 -0.032948 -0.235059 0.303756 -0.428485 -0.192661 0.226109 0.249341 -0.096716 -0.133286 0.175580 0.427122 -0.192356 -0.007139 0.209643 0.014233 -0.368646 -0.385629 -0.404425 0.128672 -0.289470 -0.424098 -0.000717 0.357749 -0.244117 0.068801 0.242348 -0.133886 0.254777 -0.146652 0.416451 0.400828 0.320401 -0.318608 0.204585 0.391916 -0.011268 -0.069306 0.141256 0.392015 0.297408 -0.183164 0.319137 -0.394948 0.309697 0.028780 0.119285 0.441051 0.143151 0.214860 0.069722 0.353681 0.221793 -0.499570 0.211430 -0.395028 0.224510 -0.046222 -0.028914 -0.020713 0.307126 -0.112462 -0.119885 0.127527 0.068930 -0.415300 0.019442 -0.442338 0.015394 -0.339302 0.449677 -0.187198 -0.022466 0.268814 -0.082147 -0.212769 -0.202406 -0.462862 -0.271718 0.440745 0.156230 0.233765 0.294426 0.042760 0.367009 0.005856 0.147732 0.091519 0.459634 -0.381182 -0.429194 0.266760 0.006356 -0.049078 -0.105713 -0.424714 0.035622 0.413729 -0.367052 -0.448984 -0.425572 -0.417375 -0.136182 0.051962 0.351439 0.281671 0.339193 -0.371855 0.219100 -0.473906 -0.410222 0.070807 0.365479 0.384204 -0.386433 0.232489 -0.109940 0.261299 -0.175992 -0.150306 0.380117 -0.105186 -0.383545 -0.113527 0.345736 0.010742 -0.038241 -0.118642 -0.075529 0.094706 -0.067626 -0.001101 0.177331 0.296192 -0.449140 0.005123 -0.022240 0.362860 0.177803 -0.103327 0.457528 0.267581 0.467480 0.323008 0.151785 -0.418953 0.055497 -0.458155 0.342346 0.379505 -0.108461 0.222463 -0.225681 0.007994 -0.391064 -0.379945 -0.481265 0.070695 0.001414 -0.056794 -0.334599 0.433788 0.442105 0.292681 0.129482 0.479172 -0.128498 -0.192157 0.383019 -0.450695 0.204516 0.340548 0.316885 0.171996 0.163555 -0.031330 0.253043 -0.280948 0.010515 0.095389 -0.401443 0.402054 -0.182148 -0.127124 -0.089952 -0.073212 -0.007069 -0.071217 0.497483 0.494345 0.371989 -0.387955 0.328423 0.301089 -0.494383 0.158112 0.307060 -0.122880 0.465955 0.190080 -0.073575 0.170471 0.030627 -0.256690 -0.157533 -0.305817 0.211980 -0.404490 -0.086765 -0.277505 0.190899 0.011791 -0.375451 -0.491249 0.384667 0.034596 -0.064461 -0.122402 0.463379 -0.117817 -0.214367 0.335369 0.095907 -0.199925 0.149463 0.101525 0.458187 -0.043477 0.478644 0.424143 -0.353397 -0.094931 0.094614 0.177230 0.148379 0.437080 0.371413 -0.139641 -0.467410 -0.215353 0.082854 0.223489 0.296438 0.207402 0.232240 0.181105 -0.258002 -0.386608 -0.527606 -0.294623 0.100802 -0.069354 -0.459254 -0.303291 0.230720 0.190209 0.298234 0.188908 -0.353267 0.276878 0.113050 -0.206664 -0.318053 -0.292336 0.470566 0.330325 -0.355256 0.341978 -0.309316 -0.322666 -0.373374 0.273538 0.400823 0.423064 -0.019060 0.054636 0.018254 0.222938 0.300842 0.162873 0.428316 -0.098356 -0.406482 0.469062 0.098353 0.324239 0.159271 -0.103413 0.013146 0.306003 -0.326535 -0.373804 -0.400661 -0.144589 -0.166140 -0.430096 -0.314263 -0.021395 0.411883 -0.123579 0.155939 -0.461491 -0.350041 -0.021665 0.402851 0.130899 -0.310175 0.065742 -0.146163 0.490668 -0.271385 -0.217847 -0.107688 -0.177867 -0.248786 0.490665 -0.353628 0.410485 -0.112749 0.159518 0.216488 0.060716 0.285715 0.315827 0.416128 -0.380425 0.385731 -0.398135 0.098179 0.297614 -0.021714 -0.324309 0.277400 0.128245 0.310881 0.297695 -0.240857 -0.499294 -0.136563 0.112981 0.491374 0.092053 0.395134 -0.116315 0.414186 -0.353652 -0.125650 -0.439442 -0.443167 0.261601 0.220076 0.273321 -0.177682 0.005791 0.089148 -0.261555 0.125366 -0.025121 -0.159690 -0.354883 -0.301994 0.318596 -0.022337 -0.391385 -0.053160 -0.211456 0.406310 0.205984 -0.210750 -0.230253 -0.181036 -0.219376 0.361800 -0.285902 0.164309 0.275986 -0.139554 -0.461341 0.336544 -0.082721 0.300260 0.056620 -0.309399 -0.377422 -0.437589 0.279749 -0.138977 0.114472 -0.331682 0.201333 0.411321 0.027120 0.019928 -0.111015 0.135735 0.466769 0.177528 0.042045 0.172752 0.466778 0.311792 0.491716 -0.252598 0.173592 -0.294186 0.411711 -0.050422 0.066260 0.450370 -0.213878 0.483540 0.250630 0.342742 -0.325860 0.373208 0.356678 0.354574 -0.278381 0.092929 -0.291484 0.435564 0.004251 0.235636 -0.044508 0.393235 -0.128629 -0.077739 0.070764 0.413417 -0.404987 0.037542 0.225209 -0.413271 0.284944 -0.101199 -0.207456 0.196655 0.348380 0.358804 0.147025 -0.365498 0.342344 -0.102345 0.472908 -0.550120 -0.257908 0.382396 0.470372 0.005093 -0.024674 -0.321112 -0.059344 0.479576 0.414525 0.396149 0.372811 -0.214104 -0.181591 -0.056425 -0.300687 -0.086578 0.481117 0.424522 0.000151 0.266061 -0.176677 0.292695 -0.037284 -0.328297 0.151499 -0.390259 -0.193796 -0.006157 0.007395 -0.216552 0.010327 0.278257 -0.334156 -0.019301 -0.216650 0.141170 0.159587 0.224007 0.120747 0.074112 0.120155 -0.006442 0.360008 0.438565 0.437133 -0.440679 -0.148013 0.418250 0.483843 0.352138 0.184311 -0.192834 0.144833 -0.352973 -0.021131 -0.203667 -0.243232 0.285074 0.290175 0.264163 -0.431478 -0.199498 0.042420 -0.265634 0.281201 0.325771 0.375536 -0.059212 0.049777 -0.003717 -0.485099 -0.330067 0.489841 0.374909 -0.391503 0.426974 0.434230 -0.039516 0.345224 0.418073 -0.187378 0.029536 -0.274760 0.457456 0.176563 0.204109 -0.246212 0.433331 -0.010817 -0.456037 0.197494 0.057704 -0.155535 -0.260085 0.292070 -0.374334 -0.434315 0.167607 0.066455 0.115462 -0.336110 0.081355 0.285395 -0.346269 -0.043736 0.393892 -0.419295 -0.109506 -0.145624 0.425929 -0.191432 0.166998 -0.044535 0.033808 0.124454 -0.367972 -0.262083 0.378242 -0.434641 0.227100 0.422205 0.262853 -0.215196 -0.233329 -0.497233 -0.523623 
-0.421796 -0.143882 0.309967 0.220056 -0.190445 0.146948 0.341846 0.327993 -0.355009 -0.392509 -0.442271 0.272740 -0.249014 0.228905 -0.004924 0.079493 0.297466 0.328217 0.005171 0.049553 0.315074 -0.362621 -0.497908 -0.460164 0.293964 0.374681 0.488152 0.128544 0.427628 0.422180 -0.101270 -0.494167 -0.221702 -0.291303 0.225888 0.087852 0.355644 0.067735 -0.084154 -0.499365 0.175226 -0.026425 0.273375 0.426212 -0.297520 -0.231549 0.005705 0.499947 -0.403332 -0.489125 0.049499 0.411742 -0.351745 0.051591 0.451578 0.442219 -0.073728 0.439730 0.070763 -0.146099 0.361910 0.469493 -0.140266 -0.359792 -0.321811 -0.414378 0.228060 -0.466166 0.153357 -0.356094 -0.465531 -0.171417 0.117481 0.307844 -0.245205 0.319961 -0.423705 0.260500 0.319907 -0.327036 0.271375 -0.130594 -0.415294 0.419630 0.420998 -0.463716 0.361849 -0.152730 0.476014 -0.067388 0.201171 0.337924 -0.097896 -0.439096 0.478132 0.080294 -0.353474 0.206192 0.114127 0.299883 0.350098 0.148596 -0.371533 -0.032421 -0.043560 -0.116738 -0.212461 0.032736 -0.356239 -0.392554 0.205700 0.415136 -0.023147 0.290405 0.334766 -0.102149 0.326689 0.196615 0.245120 0.302704 -0.370773 -0.053709 0.140628 0.031331 0.007196 0.118760 -0.388376 0.068989 -0.190812 0.225752 -0.046395 -0.324950 -0.125652 0.082072 0.142629 0.330788 0.465334 0.430168 -0.136476 -0.390905 -0.462385 -0.430776 -0.475769 0.014468 0.359629 0.358998 0.412318 0.186319 0.055612 0.157439 -0.010978 0.184839 -0.396270 -0.370350 -0.283830 0.031710 0.199541 -0.172206 -0.235353 -0.426637 -0.446454 0.218253 -0.251587 -0.072106 -0.199675 0.391043 -0.241317 -0.234341 0.321211 0.122207 -0.125247 0.358826 0.191431 -0.101015 -0.126707 0.051060 -0.242018 -0.214389 -0.262621 0.313595 0.443050 0.226402 -0.005507 -0.543471 0.332800 0.214604 0.157705 0.104463 -0.457602 0.422352 0.177826 -0.404056 0.140605 0.426239 0.023838 0.440930 0.317282 0.282521 -0.293411 0.138492 -0.095272 0.081342 -0.002682 -0.403841 0.480327 0.370611 0.147219 -0.261691 -0.343778 0.384599 -0.481990 -0.496890 0.110606 0.050337 -0.353948 -0.032948 -0.235059 0.303756 -0.428485 -0.192661 0.226109 0.249341 -0.096716 -0.133286 0.175580 0.427122 -0.192356 -0.007139 0.209643 0.014233 -0.368646 -0.385629 -0.404425 0.128672 -0.289470 -0.424098 -0.000717 0.357749 -0.244117 0.068801 0.242348 -0.133886 0.254777 -0.146652 0.416451 0.400828 0.320401 -0.318608 0.204585 0.391916 -0.011268 -0.069306 0.141256 0.392015 0.297408 -0.183164 0.319137 -0.394948 0.309697 0.028780 0.119285 0.441051 0.143151 0.214860 0.069722 0.353681 0.221793 -0.499570 0.211430 -0.395028 0.224510 -0.046222 -0.028914 -0.020713 0.307126 -0.112462 -0.119885 0.127527 0.068930 -0.415300 0.019442 -0.442338 0.015394 -0.339302 0.449677 -0.187198 -0.022466 0.268814 -0.082147 -0.212769 -0.202406 -0.462862 -0.271718 0.440745 0.156230 0.233765 0.294426 0.042760 0.367009 0.005856 0.147732 0.091519 0.459634 -0.381182 -0.429194 0.266760 0.006356 -0.049078 -0.105713 -0.424714 0.035622 0.413729 -0.367052 -0.448984 -0.425572 -0.417375 -0.136182 0.051962 0.351439 0.281671 0.339193 -0.371855 0.219100 -0.473906 -0.410222 0.070807 0.365479 0.384204 -0.386433 0.232489 -0.109940 0.261299 -0.175992 -0.150306 0.380117 -0.105186 -0.383545 -0.113527 0.345736 0.010742 -0.038241 -0.118642 -0.075529 0.094706 -0.067626 -0.001101 0.177331 0.296192 -0.449140 0.005123 -0.022240 0.362860 0.177803 -0.103327 0.457528 0.267581 0.467480 0.323008 0.151785 -0.418953 0.055497 -0.458155 0.342346 0.379505 -0.108461 0.222463 -0.225681 0.007994 -0.391064 -0.379945 -0.481265 0.070695 0.001414 -0.056794 -0.334599 0.433788 0.442105 0.292681 0.129482 0.479172 -0.128498 -0.192157 0.383019 -0.450695 0.204516 0.340548 0.316885 0.171996 0.163555 -0.031330 0.253043 -0.280948 0.010515 0.095389 -0.401443 0.402054 -0.182148 -0.127124 -0.089952 -0.073212 -0.007069 -0.071217 0.497483 0.494345 0.371989 -0.387955 0.328423 0.301089 -0.494383 0.158112 0.307060 -0.122880 0.465955 0.190080 -0.073575 0.170471 0.030627 -0.256690 -0.157533 -0.305817 0.211980 -0.404490 -0.086765 -0.277505 0.190899 0.011791 -0.375451 -0.491249 0.384667 0.034596 -0.064461 -0.122402 0.463379 -0.117817 -0.214367 0.335369 0.095907 -0.199925 0.149463 0.101525 0.458187 -0.043477 0.478644 0.424143 -0.353397 -0.094931 0.094614 0.177230 0.148379 0.437080 0.371413 -0.139641 -0.467410 -0.215353 0.082854 0.223489 0.296438 0.207402 0.232240 0.181105 -0.258002 -0.386608 -0.527606 -0.294623 0.100802 -0.069354 -0.459254 -0.303291 0.230720 0.190209 0.298234 0.188908 -0.353267 0.276878 0.113050 -0.206664 -0.318053 -0.292336 0.470566 0.330325 -0.355256 0.341978 -0.309316 -0.322666 -0.373374 0.273538 0.400823 0.423064 -0.019060 0.054636 0.018254 0.222938 0.300842 0.162873 0.428316 -0.098356 -0.406482 0.469062 0.098353 0.324239 0.159271 -0.103413 0.013146 0.306003 -0.326535 -0.373804 -0.400661 -0.144589 -0.166140 -0.430096 -0.314263 -0.021395 0.411883 -0.123579 0.155939 -0.461491 -0.350041 -0.021665 0.402851 0.130899 -0.310175 0.065742 -0.146163 0.490668 -0.271385 -0.217847 -0.107688 -0.177867 -0.248786 0.490665 -0.353628 0.410485 -0.112749 0.159518 0.216488 0.060716 0.285715 0.315827 0.416128 -0.380425 0.385731 -0.398135 0.098179 0.297614 -0.021714 -0.324309 0.277400 0.128245 0.310881 0.297695 -0.240857 -0.499294 -0.136563 0.112981 0.491374 0.092053 0.395134 -0.116315 0.414186 -0.353652 -0.125650 -0.439442 -0.443167 0.261601 0.220076 0.273321 -0.177682 0.005791 0.089148 -0.261555 0.125366 -0.025121 -0.159690 -0.354883 -0.301994 0.318596 -0.022337 -0.391385 -0.053160 -0.211456 0.406310 0.205984 -0.210750 -0.230253 -0.181036 -0.219376 0.361800 -0.285902 0.164309 0.275986 -0.139554 -0.461341 0.336544 -0.082721 0.300260 0.056620 -0.309399 -0.377422 -0.437589 0.279749 -0.138977 0.114472 -0.331682 0.201333 0.411321 0.027120 0.019928 -0.111015 0.135735 0.466769 0.177528 0.042045 0.172752 0.466778 0.311792 0.491716 -0.252598 0.173592 -0.294186 0.411711 -0.050422 0.066260 0.450370 -0.213878 0.483540 0.250630 0.342742 -0.325860 0.373208 0.356678 0.354574 -0.278381 0.092929 -0.291484 0.435564 0.004251 0.235636 -0.044508 0.393235 -0.128629 -0.077739 0.070764 0.413417 -0.404987 0.037542 0.225209 -0.413271 0.284944 -0.101199 -0.207456 0.196655 0.348380 0.358804 0.147025 -0.365498 0.342344 -0.102345 0.472908 -0.550120 -0.257908 0.382396 0.470372 0.005093 -0.024674 -0.321112 -0.059344 0.479576 0.414525 0.396149 0.372811 -0.214104 -0.181591 -0.056425 -0.300687 -0.086578 0.481117 0.424522 0.000151 0.266061 -0.176677 0.292695 -0.037284 -0.328297 0.151499 -0.390259 -0.193796 -0.006157 0.007395 -0.216552 0.010327 0.278257 -0.334156 -0.019301 -0.216650 0.141170 0.159587 0.224007 0.120747 0.074112 0.120155 -0.006442 0.360008 0.438565 0.437133 -0.440679 -0.148013 0.418250 0.483843 0.352138 0.184311 -0.192834 0.144833 -0.352973 -0.021131 -0.203667 -0.243232 0.285074 0.290175 0.264163 -0.431478 -0.199498 0.042420 -0.265634 0.281201 0.325771 0.375536 -0.059212 0.049777 -0.003717 -0.485099 -0.330067 0.489841 0.374909 -0.391503 0.426974 0.434230 -0.039516 0.345224 0.418073 -0.187378 0.029536 -0.274760 0.457456 0.176563 0.204109 -0.246212 0.433331 -0.010817 -0.456037 0.197494 0.057704 -0.155535 -0.260085 0.292070 -0.374334 -0.434315 0.167607 0.066455 0.115462 -0.336110 0.081355 0.285395 -0.346269 -0.043736 0.393892 -0.419295 -0.109506 -0.145624 0.425929 -0.191432 0.166998 -0.044535 0.033808 0.124454 -0.367972 -0.262083 0.378242 -0.434641 0.227100 0.422205 0.262853 -0.215196 -0.233329 -0.497233 -0.523623 
-0.421796 -0.143882 0.309967 0.220056 -0.190445 0.146948 0.341846 0.327993 -0.355009 -0.392509 -0.442271 0.272740 -0.249014 0.228905 -0.004924 0.079493 0.297466 0.328217 0.005171 0.049553 0.315074 -0.362621 -0.497908 -0.460164 0.293964 0.374681 0.488152 0.128544 0.427628 0.422180 -0.101270 -0.494167 -0.221702 -0.291303 0.225888 0.087852 0.355644 0.067735 -0.084154 -0.499365 0.175226 -0.026425 0.273375 0.426212 -0.297520 -0.231549 0.005705 0.499947 -0.403332 -0.489125 0.049499 0.411742 -0.351745 0.051591 0.451578 0.442219 -0.073728 0.439730 0.070763 -0.146099 0.361910 0.469493 -0.140266 -0.359792 -0.321811 -0.414378 0.228060 -0.466166 0.153357 -0.356094 -0.465531 -0.171417 0.117481 0.307844 -0.245205 0.319961 -0.423705 0.260500 0.319907 -0.327036 0.271375 -0.130594 -0.415294 0.419630 0.420998 -0.463716 0.361849 -0.152730 0.476014 -0.067388 0.201171 0.337924 -0.097896 -0.439096 0.478132 0.080294 -0.353474 0.206192 0.114127 0.299883 0.350098 0.148596 -0.371533 -0.032421 -0.043560 -0.116738 -0.212461 0.032736 -0.356239 -0.392554 0.205700 0.415136 -0.023147 0.290405 0.334766 -0.102149 0.326689 0.196615 0.245120 0.302704 -0.370773 -0.053709 0.140628 0.031331 0.007196 0.118760 -0.388376 0.068989 -0.190812 0.225752 -0.046395 -0.324950 -0.125652 0.082072 0.142629 0.330788 0.465334 0.430168 -0.136476 -0.390905 -0.462385 -0.430776 -0.475769 0.014468 0.359629 0.358998 0.412318 0.186319 0.055612 0.157439 -0.010978 0.184839 -0.396270 -0.370350 -0.283830 0.031710 0.199541 -0.172206 -0.235353 -0.426637 -0.446454 0.218253 -0.251587 -0.072106 -0.199675 0.391043 -0.241317 -0.234341 0.321211 0.122207 -0.125247 0.358826 0.191431 -0.101015 -0.126707 0.051060 -0.242018 -0.214389 -0.262621 0.313595 0.443050 0.226402 -0.005507 -0.543471 0.332800 0.214604 0.157705 0.104463 -0.457602 0.422352 0.177826 -0.404056 0.140605 0.426239 0.023838 0.440930 0.317282 0.282521 -0.293411 0.138492 -0.095272 0.081342 -0.002682 -0.403841 0.480327 0.370611 0.147219 -0.261691 -0.343778 0.384599 -0.481990 -0.496890 0.110606 0.050337 -0.353948 -0.032948 -0.235059 0.303756 -0.428485 -0.192661 0.226109 0.249341 -0.096716 -0.133286 0.175580 0.427122 -0.192356 -0.007139 0.209643 0.014233 -0.368646 -0.385629 -0.404425 0.128672 -0.289470 -0.424098 -0.000717 0.357749 -0.244117 0.068801 0.242348 -0.133886 0.254777 -0.146652 0.416451 0.400828 0.320401 -0.318608 0.204585 0.391916 -0.011268 -0.069306 0.141256 0.392015 0.297408 -0.183164 0.319137 -0.394948 0.309697 0.028780 0.119285 0.441051 0.143151 0.214860 0.069722 0.353681 0.221793 -0.499570 0.211430 -0.395028 0.224510 -0.046222 -0.028914 -0.020713 0.307126 -0.112462 -0.119885 0.127527 0.068930 -0.415300 0.019442 -0.442338 0.015394 -0.339302 0.449677 -0.187198 -0.022466 0.268814 -0.082147 -0.212769 -0.202406 -0.462862 -0.271718 0.440745 0.156230 0.233765 0.294426 0.042760 0.367009 0.005856 0.147732 0.091519 0.459634 -0.381182 -0.429194 0.266760 0.006356 -0.049078 -0.105713 -0.424714 0.035622 0.413729 -0.367052 -0.448984 -0.425572 -0.417375 -0.136182 0.051962 0.351439 0.281671 0.339193 -0.371855 0.219100 -0.473906 -0.410222 0.070807 0.365479 0.384204 -0.386433 0.232489 -0.109940 0.261299 -0.175992 -0.150306 0.380117 -0.105186 -0.383545 -0.113527 0.345736 0.010742 -0.038241 -0.118642 -0.075529 0.094706 -0.067626 -0.001101 0.177331 0.296192 -0.449140 0.005123 -0.022240 0.362860 0.177803 -0.103327 0.457528 0.267581 0.467480 0.323008 0.151785 -0.418953 0.055497 -0.458155 0.342346 0.379505 -0.108461 0.222463 -0.225681 0.007994 -0.391064 -0.379945 -0.481265 0.070695 0.001414 -0.056794 -0.334599 0.433788 0.442105 0.292681 0.129482 0.479172 -0.128498 -0.192157 0.383019 -0.450695 0.204516 0.340548 0.316885 0.171996 0.163555 -0.031330 0.253043 -0.280948 0.010515 0.095389 -0.401443 0.402054 -0.182148 -0.127124 -0.089952 -0.073212 -0.007069 -0.071217 0.497483 0.494345 0.371989 -0.387955 0.328423 0.301089 -0.494383 0.158112 0.307060 -0.122880 0.465955 0.190080 -0.073575 0.170471 0.030627 -0.256690 -0.157533 -0.305817 0.211980 -0.404490 -0.086765 -0.277505 0.190899 0.011791 -0.375451 -0.491249 0.384667 0.034596 -0.064461 -0.122402 0.463379 -0.117817 -0.214367 0.335369 0.095907 -0.199925 0.149463 0.101525 0.458187 -0.043477 0.478644 0.424143 -0.353397 -0.094931 0.094614 0.177230 0.148379 0.437080 0.371413 -0.139641 -0.467410 -0.215353 0.082854 0.223489 0.296438 0.207402 0.232240 0.181105 -0.258002 -0.386608 -0.527606 -0.294623 0.100802 -0.069354 -0.459254 -0.303291 0.230720 0.190209 0.298234 0.188908 -0.353267 0.276878 0.113050 -0.206664 -0.318053 -0.292336 0.470566 0.330325 -0.355256 0.341978 -0.309316 -0.322666 -0.373374 0.273538 0.400823 0.423064 -0.019060 0.054636 0.018254 0.222938 0.300842 0.162873 0.428316 -0.098356 -0.406482 0.469062 0.098353 0.324239 0.159271 -0.103413 0.013146 0.306003 -0.326535 -0.373804 -0.400661 -0.144589 -0.166140 -0.430096 -0.314263 -0.021395 0.411883 -0.123579 0.155939 -0.461491 -0.350041 -0.021665 0.402851 0.130899 -0.310175 0.065742 -0.146163 0.490668 -0.271385 -0.217847 -0.107688 -0.177867 -0.248786 0.490665 -0.353628 0.410485 -0.112749 0.159518 0.216488 0.060716 0.285715 0.315827 0.416128 -0.380425 0.385731 -0.398135 0.098179 0.297614 -0.021714 -0.324309 0.277400 0.128245 0.310881 0.297695 -0.240857 -0.499294 -0.136563 0.112981 0.491374 0.092053 0.395134 -0.116315 0.414186 -0.353652 -0.125650 -0.439442 -0.443167 0.261601 0.220076 0.273321 -0.177682 0.005791 0.089148 -0.261555 0.125366 -0.025121 -0.159690 -0.354883 -0.301994 0.318596 -0.022337 -0.391385 -0.053160 -0.211456 0.406310 0.205984 -0.210750 -0.230253 -0.181036 -0.219376 0.361800 -0.285902 0.164309 0.275986 -0.139554 -0.461341 0.336544 -0.082721 0.300260 0.056620 -0.309399 -0.377422 -0.437589 0.279749 -0.138977 0.114472 -0.331682 0.201333 0.411321 0.027120 0.019928 -0.111015 0.135735 0.466769 0.177528 0.042045 0.172752 0.466778 0.311792 0.491716 -0.252598 0.173592 -0.294186 0.411711 -0.050422 0.066260 0.450370 -0.213878 0.483540 0.250630 0.342742 -0.325860 0.373208 0.356678 0.354574 -0.278381 0.092929 -0.291484 0.435564 0.004251 0.235636 -0.044508 0.393235 -0.128629 -0.077739 0.070764 0.413417 -0.404987 0.037542 0.225209 -0.413271 0.284944 -0.101199 -0.207456 0.196655 0.348380 0.358804 0.147025 -0.365498 0.342344 -0.102345 0.472908 -0.550120 -0.257908 0.382396 0.470372 0.005093 -0.024674 -0.321112 -0.059344 0.479576 0.414525 0.396149 0.372811 -0.214104 -0.181591 -0.056425 -0.300687 -0.086578 0.481117 0.424522 0.000151 0.266061 -0.176677 0.292695 -0.037284 -0.328297 0.151499 -0.390259 -0.193796 -0.006157 0.007395 -0.216552 0.010327 0.278257 -0.334156 -0.019301 -0.216650 0.141170 0.159587 0.224007 0.120747 0.074112 0.120155 -0.006442 0.360008 0.438565 0.437133 -0.440679 -0.148013 0.418250 0.483843 0.352138 0.184311 -0.192834 0.144833 -0.352973 -0.021131 -0.203667 -0.243232 0.285074 0.290175 0.264163 -0.431478 -0.199498 0.042420 -0.265634 0.281201 0.325771 0.375536 -0.059212 0.049777 -0.003717 -0.485099 -0.330067 0.489841 0.374909 -0.391503 0.426974 0.434230 -0.039516 0.345224 0.418073 -0.187378 0.029536 -0.274760 0.457456 0.176563 0.204109 -0.246212 0.433331 -0.010817 -0.456037 0.197494 0.057704 -0.155535 -0.260085 0.292070 -0.374334 -0.434315 0.167607 0.066455 0.115462 -0.336110 0.081355 0.285395 -0.346269 -0.043736 0.393892 -0.419295 -0.109506 -0.145624 0.425929 -0.191432 0.166998 -0.044535 0.033808 0.124454 -0.367972 -0.262083 0.378242 -0.434641 0.227100 0.422205 0.262853 -0.215196 -0.233329 -0.497233 -0.523623 
-0.421796 -0.143882 0.309967 0.220056 -0.190445 0.146948 0.341846 0.327993 -0.355009 -0.392509 -0.442271 0.272740 -0.249014 0.228905 -0.004924 0.079493 0.297466 0.328217 0.005171 0.049553 0.315074 -0.362621 -0.497908 -0.460164 0.293964 0.374681 0.488152 0.128544 0.427628 0.422180 -0.101270 -0.494167 -0.221702 -0.291303 0.225888 0.087852 0.355644 0.067735 -0.084154 -0.499365 0.175226 -0.026425 0.273375 0.426212 -0.297520 -0.231549 0.005705 0.499947 -0.403332 -0.489125 0.049499 0.411742 -0.351745 0.051591 0.451578 0.442219 -0.073728 0.439730 0.070763 -0.146099 0.361910 0.469493 -0.140266 -0.359792 -0.321811 -0.414378 0.228060 -0.466166 0.153357 -0.356094 -0.465531 -0.171417 0.117481 0.307844 -0.245205 0.319961 -0.423705 0.260500 0.319907 -0.327036 0.271375 -0.130594 -0.415294 0.419630 0.420998 -0.463716 0.361849 -0.152730 0.476014 -0.067388 0.201171 0.337924 -0.097896 -0.439096 0.478132 0.080294 -0.353474 0.206192 0.114127 0.299883 0.350098 0.148596 -0.371533 -0.032421 -0.043560 -0.116738 -0.212461 0.032736 -0.356239 -0.392554 0.205700 0.415136 -0.023147 0.290405 0.334766 -0.102149 0.326689 0.196615 0.245120 0.302704 -0.370773 -0.053709 0.140628 0.031331 0.007196 0.118760 -0.388376 0.237612 -0.159440 0.225752 -0.046395 -0.324950 -0.125652 0.082072 0.142629 0.330788 0.465334 0.430168 -0.136476 -0.390905 -0.462385 -0.430776 -0.475769 0.014468 0.359629 0.358998 0.412318 0.186319 0.055612 0.157439 -0.010978 0.184839 -0.396270 -0.370350 -0.283830 0.189353 0.296794 -0.172206 -0.235353 -0.426637 -0.446454 0.218253 -0.251587 -0.072106 -0.199675 0.391043 -0.241317 -0.234341 0.321211 0.122207 -0.125247 0.358826 0.191431 -0.101015 -0.126707 0.051060 -0.242018 -0.214389 -0.262621 0.313595 0.443050 0.226402 0.002336 -0.363868 0.379073 0.214604 0.157705 0.104463 -0.457602 0.422352 0.177826 -0.404056 0.140605 0.426239 0.023838 0.440930 0.317282 0.282521 -0.293411 0.138492 -0.095272 0.081342 -0.002682 -0.403841 0.480327 0.370611 0.147219 -0.261691 -0.343778 0.384599 -0.414540 -0.305522 0.111390 0.050337 -0.353948 -0.032948 -0.235059 0.303756 -0.428485 -0.192661 0.226109 0.249341 -0.096716 -0.133286 0.175580 0.427122 -0.192356 -0.007139 0.209643 0.014233 -0.368646 -0.385629 -0.404425 0.128672 -0.289470 -0.424098 -0.000717 0.357749 -0.128042 0.241346 0.242348 -0.133886 0.254777 -0.146652 0.416451 0.400828 0.320401 -0.318608 0.204585 0.391916 -0.011268 -0.069306 0.141256 0.392015 0.297408 -0.183164 0.319137 -0.394948 0.309697 0.028780 0.119285 0.441051 0.143151 0.214860 0.069722 0.353681 0.359044 -0.363102 0.211430 -0.395028 0.224510 -0.046222 -0.028914 -0.020713 0.307126 -0.112462 -0.119885 0.127527 0.068930 -0.415300 0.019442 -0.442338 0.015394 -0.339302 0.449677 -0.187198 -0.022466 0.268814 -0.082147 -0.212769 -0.202406 -0.462862 -0.271718 0.440745 0.346813 0.361605 0.294426 0.042760 0.367009 0.005856 0.147732 0.091519 0.459634 -0.381182 -0.429194 0.266760 0.006356 -0.049078 -0.105713 -0.424714 0.035622 0.413729 -0.367052 -0.448984 -0.425572 -0.417375 -0.136182 0.051962 0.351439 0.281671 0.339193 -0.330287 0.417527 -0.391555 -0.410222 0.070807 0.365479 0.384204 -0.386433 0.232489 -0.109940 0.261299 -0.175992 -0.150306 0.380117 -0.105186 -0.383545 -0.113527 0.345736 0.010742 -0.038241 -0.118642 -0.075529 0.094706 -0.067626 -0.001101 0.177331 0.296192 -0.449140 0.052181 0.176971 0.416976 0.177803 -0.103327 0.457528 0.267581 0.467480 0.323008 0.151785 -0.418953 0.055497 -0.458155 0.342346 0.379505 -0.108461 0.222463 -0.225681 0.007994 -0.391064 -0.379945 -0.481265 0.070695 0.001414 -0.056794 -0.334599 0.433788 0.442105 0.392286 0.329478 0.506622 -0.128498 -0.192157 0.383019 -0.450695 0.204516 0.340548 0.316885 0.171996 0.163555 -0.031330 0.253043 -0.280948 0.010515 0.095389 -0.401443 0.402054 -0.182148 -0.127124 -0.089952 -0.073212 -0.007069 -0.071217 0.497483 0.494345 0.371989 -0.286781 0.526850 0.326971 -0.494383 0.158112 0.307060 -0.122880 0.465955 0.190080 -0.073575 0.170471 0.030627 -0.256690 -0.157533 -0.305817 0.211980 -0.404490 -0.086765 -0.277505 0.190899 0.011791 -0.375451 -0.491249 0.384667 0.034596 -0.064461 -0.122402 0.463379 -0.016643 -0.042607 0.335369 0.095907 -0.199925 0.149463 0.101525 0.458187 -0.043477 0.478644 0.424143 -0.353397 -0.094931 0.094614 0.177230 0.148379 0.437080 0.371413 -0.139641 -0.467410 -0.215353 0.082854 0.223489 0.296438 0.207402 0.232240 0.181105 -0.258002 -0.278375 -0.355846 -0.294623 0.100802 -0.069354 -0.459254 -0.303291 0.230720 0.190209 0.298234 0.188908 -0.353267 0.276878 0.113050 -0.206664 -0.318053 -0.292336 0.470566 0.330325 -0.355256 0.341978 -0.309316 -0.322666 -0.373374 0.273538 0.400823 0.423064 -0.019060 0.210710 0.189230 0.222938 0.300842 0.162873 0.428316 -0.098356 -0.406482 0.469062 0.098353 0.324239 0.159271 -0.103413 0.013146 0.306003 -0.326535 -0.373804 -0.400661 -0.144589 -0.166140 -0.430096 -0.314263 -0.021395 0.411883 -0.123579 0.155939 -0.461491 -0.350041 0.134409 0.519711 0.130899 -0.310175 0.065742 -0.146163 0.490668 -0.271385 -0.217847 -0.107688 -0.177867 -0.248786 0.490665 -0.353628 0.410485 -0.112749 0.159518 0.216488 0.060716 0.285715 0.315827 0.416128 -0.380425 0.385731 -0.398135 0.098179 0.297614 -0.021714 -0.168235 0.394260 0.128245 0.310881 0.297695 -0.240857 -0.499294 -0.136563 0.112981 0.491374 0.092053 0.395134 -0.116315 0.414186 -0.353652 -0.125650 -0.439442 -0.443167 0.261601 0.220076 0.273321 -0.177682 0.005791 0.089148 -0.261555 0.125366 -0.025121 -0.159690 -0.198808 -0.153762 0.318596 -0.022337 -0.391385 -0.053160 -0.211456 0.406310 0.205984 -0.210750 -0.230253 -0.181036 -0.219376 0.361800 -0.285902 0.164309 0.275986 -0.139554 -0.461341 0.336544 -0.082721 0.300260 0.056620 -0.309399 -0.377422 -0.437589 0.279749 -0.138977 0.260351 -0.159922 0.201333 0.411321 0.027120 0.019928 -0.111015 0.135735 0.466769 0.177528 0.042045 0.172752 0.466778 0.311792 0.491716 -0.252598 0.173592 -0.294186 0.411711 -0.050422 0.066260 0.450370 -0.213878 0.483540 0.250630 0.342742 -0.325860 0.373208 0.453146 0.552216 -0.253283 0.092929 -0.291484 0.435564 0.004251 0.235636 -0.044508 0.393235 -0.128629 -0.077739 0.070764 0.413417 -0.404987 0.037542 0.225209 -0.413271 0.284944 -0.101199 -0.207456 0.196655 0.348380 0.358804 0.147025 -0.365498 0.342344 -0.102345 0.481536 -0.417575 -0.200654 0.382396 0.470372 0.005093 -0.024674 -0.321112 -0.059344 0.479576 0.414525 0.396149 0.372811 -0.214104 -0.181591 -0.056425 -0.300687 -0.086578 0.481117 0.424522 0.000151 0.266061 -0.176677 0.292695 -0.037284 -0.328297 0.151499 -0.390259 -0.193796 -0.006157 0.007395 -0.216552 0.010327 0.278257 -0.334156 -0.019301 -0.216650 0.141170 0.159587 0.224007 0.120747 0.074112 0.120155 -0.006442 0.360008 0.438565 0.437133 -0.440679 -0.148013 0.418250 0.483843 0.352138 0.184311 -0.192834 0.144833 -0.352973 -0.021131 -0.203667 -0.243232 0.285074 0.290175 0.264163 -0.431478 -0.199498 0.042420 -0.265634 0.281201 0.325771 0.375536 -0.059212 0.049777 -0.003717 -0.485099 -0.330067 0.489841 0.374909 -0.391503 0.426974 0.434230 -0.039516 0.345224 0.418073 -0.187378 0.029536 -0.274760 0.457456 0.176563 0.204109 -0.246212 0.433331 -0.010817 -0.456037 0.197494 0.057704 -0.155535 -0.260085 0.292070 -0.374334 -0.434315 0.167607 0.066455 0.115462 -0.336110 0.081355 0.285395 -0.346269 -0.043736 0.393892 -0.419295 -0.109506 -0.145624 0.425929 -0.191432 0.166998 -0.044535 0.033808 0.124454 -0.367972 -0.262083 0.378242 -0.434641 0.227100 0.422205 0.262853 -0.215196 -0.233329 -0.497233 -0.323628 
EPOCH 1
-0.421796 -0.143882 0.309967 0.220056 -0.190445 0.146948 0.341846 0.327993 -0.355009 -0.392509 -0.442271 0.272740 -0.249014 0.228905 -0.004924 0.079493 0.297466 0.328217 0.005171 0.049553 0.315074 -0.362621 -0.497908 -0.460164 0.293964 0.374681 0.488152 0.128544 0.427628 0.422180 -0.101270 -0.494167 -0.221702 -0.291303 0.225888 0.087886 0.357304 0.067240 -0.118204 -0.539547 0.155931 -0.027539 0.144704 0.082437 -0.360690 -0.254302 0.002981 0.313417 -0.478628 -0.490816 0.049359 0.411742 -0.351745 0.051591 0.451578 0.442219 -0.073728 0.439730 0.070763 -0.146099 0.361910 0.469493 -0.140266 -0.359715 -0.350155 -0.362454 0.275284 -0.566076 -0.181993 -0.563830 -0.926403 -0.904318 -0.185079 0.062227 -0.361145 0.149783 -0.556618 0.042267 0.209137 -0.327049 0.271371 -0.130594 -0.415294 0.419630 0.420998 -0.463716 0.361849 -0.152730 0.476014 -0.067388 0.204183 0.333573 -0.058063 -0.051027 0.875625 0.172616 -0.070214 0.344104 -0.400567 -0.256506 -0.315034 -0.691040 -0.682088 -0.246855 -0.274846 -0.312622 -0.370146 -0.083704 -0.489033 -0.446936 0.205700 0.415136 -0.023147 0.290405 0.334766 -0.102149 0.326665 0.275661 0.403140 0.568809 -0.012265 0.681237 1.097881 1.006856 0.957618 0.857108 0.154913 0.513012 0.068101 -0.339604 -0.504878 -0.300088 -0.548572 -0.538413 -0.227398 0.118303 0.325249 0.400736 -0.136476 -0.390905 -0.462385 -0.430776 -0.475769 0.014468 0.393525 0.521202 0.802161 0.851942 0.907164 1.200007 1.116326 0.995696 0.165304 -0.087670 -0.181709 0.454373 1.224902 0.570912 0.071973 -0.230174 -0.741665 -0.330708 -0.551171 -0.538504 -0.527866 0.369423 -0.241318 -0.234342 0.321211 0.122207 -0.125237 0.358879 0.198748 -0.062323 0.496923 0.910453 0.789477 0.648728 0.459751 0.990240 0.911063 0.464541 0.578256 -0.363074 0.550526 0.623894 0.445148 0.469961 -0.528765 0.116300 -0.229142 -0.954584 -0.203540 0.353206 0.023838 0.440930 0.317282 0.282521 -0.293226 0.138776 -0.085603 0.317365 0.806386 0.503603 0.994697 0.821079 0.632244 0.457640 0.396632 1.292121 0.499215 -0.420526 -0.189684 0.077668 -0.292957 0.347071 -0.014831 0.281781 -0.499025 -0.605654 -0.036654 0.173887 -0.096717 -0.133286 0.175580 0.427122 -0.192254 -0.006864 0.222708 0.397708 0.141268 0.160710 -0.424746 0.160511 0.035298 0.496266 0.702916 0.964238 0.372406 0.387082 0.814655 0.167067 0.495100 0.098922 0.672234 0.402209 0.377950 -0.397550 0.020719 0.376583 -0.011268 -0.069306 0.141256 0.392015 0.297408 -0.182981 0.375478 -0.088741 0.536261 -0.196344 -0.677432 -0.006620 -0.130134 0.017989 -0.312074 0.041919 0.526093 -0.373865 1.060699 0.212130 0.267686 0.007880 0.126916 0.071939 0.514738 -0.225426 -0.256610 0.127527 0.068930 -0.415300 0.019442 -0.442338 0.015394 -0.339244 0.483175 -0.242688 -0.131813 -0.584361 -0.936985 -1.274802 -1.144289 -1.510151 -1.445379 -0.510491 -0.450911 0.033201 0.766682 0.157319 0.206277 0.096772 0.303806 0.136649 0.562039 -0.569762 -0.488828 0.266761 0.006356 -0.049078 -0.105713 -0.424714 0.035622 0.408205 -0.517794 -1.006046 -1.317579 -1.887405 -1.748286 -1.668859 -1.077763 -1.233484 -1.139133 -1.733999 -1.193207 -1.307456 -0.735315 0.085587 -0.070507 0.224466 -0.256304 0.316347 -0.208615 -0.216105 -0.323188 -0.149187 0.380117 -0.105186 -0.383545 -0.113527 0.345736 -0.017741 -0.238942 -0.954744 -1.521783 -1.526685 -2.052410 -1.505398 -1.296751 -1.468657 -2.074445 -1.344019 -1.661168 -0.489965 -0.087141 -0.224889 0.335181 0.080079 0.105713 0.031345 -0.505014 -1.094496 -0.126111 -0.391913 0.354742 0.379583 -0.108461 0.222463 -0.225681 -0.021030 -0.555447 -1.216449 -1.755495 -1.403213 -1.595577 -1.168829 -1.267497 -0.685262 0.128439 0.188308 -0.684084 -0.322891 -0.426276 -0.234026 0.010124 -0.877221 -0.215257 -0.369991 -0.368481 -0.452981 -0.133493 0.127960 0.284438 -0.280621 0.010515 0.095389 -0.401443 0.378048 -0.321803 -0.604224 -0.990357 -0.976228 -1.271804 -1.023026 -0.054905 0.171615 0.507042 -0.074807 0.182230 -0.351433 -0.448532 -0.430186 -0.399539 -0.766559 -0.226309 -0.554876 -0.544390 -0.119763 -0.223760 -0.031701 0.064106 -0.305437 0.211980 -0.404490 -0.086702 -0.258235 0.266912 0.030920 -0.625813 -1.105612 -0.342337 -0.499071 0.082322 0.560506 0.898385 0.265379 -0.819912 -0.133067 0.298879 -0.231462 -0.116313 -0.494724 0.154777 -0.456294 0.309381 0.617873 -0.236317 -0.001273 0.325498 0.207221 0.148379 0.437080 0.371576 -0.063737 -0.254864 0.208579 0.452694 0.163639 -0.095968 0.294591 0.335780 0.197891 -0.194254 -0.036897 -0.861357 -0.133075 0.508658 -0.166062 -0.687303 -0.563865 0.501790 0.340104 0.650212 0.891154 0.217724 0.572333 0.271017 -0.129674 -0.318053 -0.292336 0.470759 0.575946 0.243838 1.177647 0.850159 0.105005 -0.570678 0.196069 -0.008088 -0.163701 -0.074045 -0.170653 -0.111805 0.436979 0.641124 0.059586 0.276643 -0.012710 0.088108 0.599983 0.400126 0.932289 0.698485 0.217589 0.024508 0.307117 -0.326535 -0.373804 -0.400609 0.168513 0.635012 0.819617 1.186537 0.716782 0.859083 0.208241 -0.483544 -0.965854 -0.255533 0.508828 0.330254 0.111517 -0.174757 -0.204536 -0.453527 0.329711 -0.457159 -0.368386 -0.090968 0.262687 0.465029 0.987811 -0.350128 0.410940 -0.112749 0.159518 0.216519 0.418845 1.290368 1.474404 1.566324 0.385131 0.930099 0.324147 0.138722 0.361132 0.263127 -0.150587 0.091240 0.039404 0.175916 0.044648 -0.174801 -0.217155 0.085888 0.131561 0.850424 0.548001 1.104696 0.244933 0.420628 -0.353652 -0.125650 -0.439442 -0.443146 0.434768 1.125521 1.526716 0.730479 0.819979 0.992161 0.475710 0.404290 -0.010111 -0.325592 -0.760310 -0.590353 -0.101722 -0.406010 -0.782641 -0.241234 0.519703 1.030089 0.592617 0.601128 0.289474 0.238506 0.034783 0.420025 -0.285902 0.164309 0.275986 -0.139554 -0.342776 0.855824 0.467622 0.791242 0.707686 0.311914 0.337743 -0.042341 0.185588 -0.888805 -0.515890 -0.641074 0.008561 0.379391 0.086915 0.040427 0.468859 0.709694 1.474994 1.093458 0.525707 0.223683 0.523822 0.322159 0.491716 -0.252598 0.173592 -0.294186 0.459264 0.178722 0.086156 0.276419 -0.319749 0.370612 0.624858 1.045260 -0.207729 0.371855 0.223586 0.171427 -0.234279 -0.028334 -0.356162 0.589453 0.512398 0.749232 0.499710 0.814128 0.129098 -0.061835 0.087697 0.413417 -0.404987 0.037542 0.225209 -0.413271 0.279536 -0.165679 -0.638336 -0.434102 -0.508181 -0.538030 -0.380837 -0.708490 0.032083 -0.197565 0.116736 -0.915171 -0.587088 0.288382 0.315603 -0.127666 -0.059116 -0.297152 -0.019046 0.545448 0.521828 0.428829 0.394335 -0.214104 -0.181591 -0.056425 -0.300687 -0.086578 0.480666 0.409197 -0.232384 -0.045186 -0.553298 -0.264879 -0.482715 -0.618555 -0.184830 -0.585572 -0.349491 -0.294224 -0.406348 -0.678131 -0.520960 -0.233813 -0.761616 -0.311462 -0.303379 0.003252 0.081894 0.208916 0.126381 0.074112 0.120155 -0.006442 0.360008 0.438565 0.437133 -0.440679 -0.187495 0.235116 0.345837 0.240371 0.146096 -0.280250 0.070936 -0.368012 -0.076231 -0.394368 -0.361437 -0.033545 -0.077656 -0.030249 -0.655596 -0.350559 -0.065685 -0.401665 0.175709 0.302861 0.375536 -0.059212 0.049777 -0.003717 -0.485099 -0.330067 0.489841 0.374909 -0.411075 0.311817 0.335914 -0.071726 0.337170 0.417419 -0.187521 0.029347 -0.353962 0.306684 0.142072 0.203618 -0.246544 0.372122 -0.079831 -0.469274 0.196841 0.057699 -0.155535 -0.260085 0.292070 -0.374334 -0.434315 0.167607 0.066455 0.115462 -0.336110 0.081355 0.285395 -0.346269 -0.043736 0.393892 -0.419295 -0.109506 -0.145624 0.425929 -0.191432 0.166998 -0.044535 0.033808 0.124454 -0.367972 -0.262083 0.377355 -0.435236 0.227100 0.422205 0.262853 -0.215196 -0.233329 -0.497233 -2.659666 
-0.421796 -0.143882 0.309967 0.220056 -0.190445 0.146948 0.341846 0.327993 -0.355009 -0.392509 -0.442271 0.272740 -0.249014 0.228905 -0.004924 0.079493 0.297466 0.328217 0.005171 0.049553 0.315074 -0.362621 -0.497908 -0.460164 0.293964 0.374681 0.488152 0.128544 0.427628 0.422180 -0.101270 -0.494167 -0.221702 -0.291303 0.225265 0.078508 0.321072 0.066489 -0.084156 -0.504212 0.164086 -0.039265 0.271705 0.424091 -0.300510 -0.231690 0.005668 0.499947 -0.408157 -0.553606 -0.031213 0.405162 -0.351745 0.051591 0.451578 0.442219 -0.073728 0.439730 0.070763 -0.146099 0.361910 0.469493 -0.169856 -0.438593 -0.400658 -0.443254 0.176685 -0.562589 0.027702 -0.491185 -0.591797 -0.244656 0.082275 0.197640 -0.285289 0.285503 -0.444487 0.239062 0.219457 -0.365199 0.271375 -0.130594 -0.415294 0.419630 0.420998 -0.463716 0.361849 -0.152730 0.476014 -0.069880 0.135140 0.241409 -0.211315 -0.573758 0.292599 -0.100644 -0.554537 0.019211 -0.083680 0.085554 0.074919 -0.065959 -0.516778 -0.192796 -0.170047 -0.263454 -0.326465 0.027033 -0.356239 -0.392554 0.205700 0.415136 -0.023147 0.290405 0.334766 -0.102149 0.314749 0.037194 0.023492 0.045364 -0.575900 -0.356421 -0.226439 -0.359421 -0.567166 -0.522284 -1.344582 -1.025960 -1.121640 -0.403228 -0.465782 -0.631972 -0.429612 -0.160949 0.023329 0.251587 0.465333 0.430168 -0.136476 -0.390905 -0.462385 -0.430776 -0.475769 0.014468 0.334554 0.120350 0.141073 -0.178699 -0.528276 -0.484145 -0.570585 -0.432179 -1.122057 -1.156388 -1.227355 -0.760388 -0.279770 -0.422928 -0.462613 -0.878192 -0.941458 -0.224098 -0.515081 -0.301764 -0.214895 0.391043 -0.241317 -0.234341 0.321211 0.122207 -0.125247 0.358822 0.162915 -0.316048 -0.405421 -0.482962 -0.954775 -0.738964 -0.719149 -0.191104 0.090784 0.301995 0.439958 -0.140185 0.755969 0.586959 0.544837 0.196151 -0.678261 0.327128 0.060076 -0.576557 0.050028 0.423627 0.023838 0.440930 0.317282 0.282521 -0.293411 0.138481 -0.182325 -0.288562 -0.486342 -0.949583 0.057081 0.210532 0.057321 -0.088940 -0.078480 0.663097 0.115910 0.468491 1.064608 0.810454 0.356099 0.573825 -0.216218 0.352996 -0.284214 -0.119142 0.167486 0.252658 -0.096716 -0.133286 0.175580 0.427110 -0.192356 -0.007147 0.087602 -0.277957 -0.593355 -0.660695 -0.289125 0.214308 -0.095917 -0.432032 0.224570 0.851151 0.169612 0.536800 0.736360 0.644174 1.008044 0.160854 0.642138 0.428397 0.488783 -0.185645 0.224049 0.401067 -0.011268 -0.069306 0.141256 0.392015 0.297408 -0.185757 0.237797 -0.487148 0.285810 0.042038 0.412608 0.701298 0.379755 0.316253 0.493995 0.666903 0.084950 -0.429412 0.679819 0.275380 0.787656 0.417302 0.292928 0.063418 0.539465 0.018934 -0.055500 0.132813 0.068705 -0.415300 0.019442 -0.442338 0.015394 -0.353532 0.436908 0.025818 0.239742 0.606884 0.657875 0.508946 0.338103 0.053422 0.392373 0.489011 -0.417583 -0.044127 0.765065 0.450355 0.436033 0.071929 0.807072 0.300973 0.795253 -0.221656 -0.364700 0.278085 0.005854 -0.049078 -0.105713 -0.424714 0.035622 0.411582 -0.180721 0.065451 0.290746 0.260624 0.972234 1.131967 1.232991 0.942531 0.804846 -0.846719 -0.512963 -0.696828 0.129577 0.491081 0.297202 0.558030 0.256950 0.623151 0.232358 0.245981 -0.226823 -0.211572 0.379717 -0.105186 -0.383545 -0.113527 0.345736 0.010742 0.338185 0.638218 1.026653 0.940560 0.758938 0.887007 1.448068 1.141188 -0.418491 -0.457791 -0.519737 0.252345 0.846762 0.625582 0.420874 0.548274 1.014209 0.634813 0.235488 -0.473720 -0.029991 -0.501452 0.330490 0.362676 -0.108461 0.222463 -0.225681 0.007990 -0.024260 0.474271 0.589893 0.773722 0.434947 0.454375 0.610974 0.748255 0.281050 -0.225990 -0.374649 0.338086 0.508127 0.688145 0.875459 0.101053 0.571825 0.431330 -0.131548 -0.319379 -0.013303 -0.101688 0.178208 -0.351455 0.010515 0.095389 -0.401444 0.397468 0.099717 0.531176 0.746713 0.455919 0.480230 -0.053020 0.852075 0.318207 -0.012460 -0.714999 -0.356048 0.033142 -0.087342 1.180735 0.823823 0.297217 0.577353 -0.111655 -0.780035 -0.472968 -0.266355 -0.342307 -0.180159 -0.313651 0.211980 -0.404490 -0.086918 -0.283466 0.458024 0.596478 0.159193 -0.061993 0.859734 0.165033 -0.119496 -0.506289 -0.112976 -0.861115 -1.036617 0.025386 0.431619 0.093138 0.441713 0.545871 0.443383 -0.471274 -0.185475 -0.109098 -0.828684 -0.310183 0.094613 0.177230 0.148379 0.437080 0.371045 -0.185145 -0.316860 0.214713 0.139361 0.211568 0.272141 -0.372837 -0.167313 -0.359599 -0.835023 -1.147122 -1.278916 -0.528367 -0.062973 -0.026439 -0.088054 -0.014691 0.183629 -0.427034 -0.489775 -0.362853 -0.849700 0.002462 0.112507 -0.206664 -0.318053 -0.292336 0.470177 0.219883 -0.458010 0.334776 -0.603715 -0.759896 -0.910062 -0.331361 -0.153991 -0.190719 -0.501528 -0.328061 -0.341588 -0.084293 0.091060 0.393829 0.631319 -0.043561 -0.789273 -0.360808 -0.675627 -0.293449 -0.349711 -0.329599 -0.007723 0.306003 -0.326535 -0.373804 -0.400711 -0.314570 -0.310085 -0.843641 -1.027796 -0.664168 -0.039437 -0.498078 -0.741087 -1.274875 -1.201090 -0.466773 0.018992 -0.182030 -0.514403 0.248209 -0.057952 0.207413 -0.476723 -0.916938 -1.012437 -0.902107 -0.805673 0.256456 -0.355346 0.410485 -0.112749 0.159518 0.216488 -0.075718 -0.062397 -0.331048 -0.671739 -1.457127 -0.473923 -1.174320 -1.020461 -0.598463 -0.605692 -0.544170 0.087138 -0.625228 -0.243462 -0.060483 -0.056196 -0.555908 -0.278443 -0.171598 -0.069139 -0.403858 0.158504 -0.177467 0.414186 -0.353652 -0.125650 -0.439442 -0.430205 0.178508 -0.044511 -0.394499 -1.016503 -1.046366 -0.876766 -1.096467 -0.556222 -0.773330 -0.668384 -0.621751 -0.834397 -0.420498 -0.549786 -0.616095 0.051912 -0.371001 0.054812 0.047231 -0.410923 -0.410942 -0.232734 -0.220264 0.361186 -0.285902 0.164309 0.275986 -0.128392 -0.465435 0.212267 -0.567010 -0.328431 -0.677004 -1.027526 -0.927246 -1.186091 -0.617867 -0.997325 -0.818001 -1.157781 -0.259001 -0.114232 -0.403427 -0.376273 -0.407886 0.003090 0.271618 -0.037773 -0.134857 0.133391 0.466895 0.311594 0.491716 -0.252598 0.173592 -0.294186 0.411188 -0.184028 -0.424592 -0.144966 -0.827274 0.054903 -0.153619 -0.160038 -0.907349 -0.043076 -0.354198 -0.041530 -0.569028 -0.261490 -0.527380 0.256742 -0.141464 0.364793 -0.198315 0.236276 -0.146634 0.004426 0.072345 0.413417 -0.404987 0.037542 0.225209 -0.413271 0.279967 -0.302142 -0.497639 -0.155654 0.134165 0.411403 0.171717 -0.354370 0.346973 0.109370 0.491056 -0.150209 -0.227339 0.382894 0.571478 0.069363 0.372492 0.021592 0.080508 0.524871 0.390124 0.536082 0.373257 -0.214104 -0.181591 -0.056425 -0.300687 -0.086578 0.480702 0.421419 -0.047892 0.362682 -0.056276 0.520775 0.370859 0.340808 0.807842 0.416044 0.229028 0.643101 0.646515 0.434029 0.629423 0.814319 0.223792 0.579721 0.255625 0.425613 0.184086 0.253713 0.105072 0.074112 0.120155 -0.006442 0.360008 0.438565 0.437133 -0.396812 0.004860 0.652090 0.679357 0.584451 0.698020 0.535528 0.675319 0.348131 0.359902 0.121817 0.062199 0.651617 0.715775 0.668478 0.005627 0.122746 0.438490 -0.078566 0.319303 0.331349 0.375536 -0.059212 0.049777 -0.003717 -0.485099 -0.330067 0.506955 0.482591 -0.335130 0.495291 0.482549 0.082632 0.587734 0.538227 -0.149877 0.235154 -0.014387 0.518172 0.243876 0.276074 -0.190217 0.522783 0.143734 -0.377730 0.210851 0.058015 -0.155535 -0.260085 0.292070 -0.374334 -0.434315 0.167607 0.066455 0.115462 -0.336110 0.081355 0.285395 -0.346269 -0.043736 0.393892 -0.419295 -0.109506 -0.145624 0.425970 -0.191398 0.167001 -0.044535 0.033808 0.124454 -0.367972 -0.262083 0.378242 -0.434641 0.227100 0.422205 0.262853 -0.215196 -0.233329 -0.497233 -0.454319 
-0.421796 -0.143882 0.309967 0.220056 -0.190445 0.146948 0.341846 0.327993 -0.355009 -0.392509 -0.442271 0.272740 -0.249014 0.228905 -0.004924 0.079493 0.297466 0.328217 0.005171 0.049553 0.315074 -0.362621 -0.497908 -0.460164 0.293964 0.374681 0.488152 0.128544 0.427628 0.422180 -0.101270 -0.494167 -0.221702 -0.291303 0.225891 0.087885 0.356055 0.068422 -0.072515 -0.481325 0.249123 0.022494 0.273405 0.422597 -0.327816 -0.324667 -0.015550 0.499947 -0.379579 -0.405667 0.056427 0.411742 -0.351745 0.051591 0.451578 0.442219 -0.073728 0.439730 0.070763 -0.146099 0.361910 0.469493 -0.140110 -0.356998 -0.269162 -0.422852 0.219426 -0.423666 0.580206 -0.356754 -0.791300 -0.286243 -0.004427 0.215435 -0.153546 0.472118 -0.080743 0.684000 0.551480 -0.282477 0.272540 -0.130090 -0.415294 0.419630 0.420998 -0.463716 0.361736 -0.152757 0.476014 -0.088536 0.152667 0.343178 -0.005575 -0.372945 0.565829 0.121036 -0.395878 -0.130954 -0.630409 -0.085643 0.087447 0.202248 0.140570 1.201913 0.902645 0.623062 0.305051 0.212159 -0.303059 -0.384186 0.205700 0.415136 -0.023147 0.290405 0.334380 -0.102243 0.326689 0.038805 0.022431 -0.006773 -0.663922 -0.152207 0.237136 -0.298171 -0.391107 -0.616496 -1.338775 -0.392955 -0.342559 0.544613 0.577366 0.882724 1.019923 0.934522 0.493740 0.379500 0.522302 0.438182 -0.136476 -0.390905 -0.462385 -0.430776 -0.475822 0.014454 0.336605 0.146729 0.162851 -0.153781 -0.252959 -0.056301 -0.595210 -0.303481 -0.709348 -0.657396 -0.310265 0.123902 0.034976 0.030521 0.216544 0.181487 0.111838 0.260378 -0.168035 -0.122233 -0.190255 0.401467 -0.241317 -0.234341 0.321211 0.122207 -0.125247 0.358826 0.191171 -0.172863 -0.317939 -0.162258 -0.611839 -0.631627 -0.731045 0.025892 0.138789 -0.536560 -0.540241 -0.704980 -0.031916 0.139605 -0.236388 -0.246165 -0.933094 -0.266415 -0.162245 -0.590887 0.103901 0.425783 0.027363 0.440930 0.317282 0.282521 -0.293411 0.138492 -0.095405 -0.102355 -0.356888 -0.620910 0.045740 0.136773 -0.174071 -0.702459 -1.197981 -0.861165 -1.790138 -1.531704 -0.711361 -0.855169 -1.599233 -1.397822 -1.528616 -0.820475 -1.000426 -0.367906 0.156567 0.197683 -0.086141 -0.133286 0.175580 0.427122 -0.192356 -0.007139 0.199437 -0.318263 -0.735683 -0.698739 -0.684383 -0.209768 -0.638154 -1.099322 -0.958020 -0.667400 -1.321914 -0.886139 -0.892505 -1.407601 -1.254697 -1.803783 -1.190614 -0.924486 -0.303576 -0.440001 0.163963 0.354125 -0.000693 -0.069306 0.141256 0.392015 0.297408 -0.183164 0.239730 -0.751553 0.066717 -0.237147 0.103739 0.274400 0.149517 -0.070427 -0.186136 -0.538332 -0.658213 -1.259956 -1.080495 -1.878792 -1.086959 -1.047274 -1.072699 -1.057923 -0.336140 -0.212377 -0.125250 0.127663 0.076704 -0.415300 0.019442 -0.442338 0.015394 -0.339302 0.351137 -0.417971 0.077720 0.520433 0.114438 0.240974 -0.070706 -0.523499 -0.219783 0.079814 -0.133910 -0.815791 -0.868736 -1.211070 -0.575914 -0.668033 -0.508397 -0.261138 0.429308 -0.383611 -0.437928 0.262912 -0.000773 -0.049078 -0.105713 -0.424714 0.035622 0.413729 -0.482719 -0.649410 -0.225368 -0.068878 0.621240 0.514663 1.016054 0.840694 0.979920 0.234875 0.059302 -1.596601 -1.203743 -0.572559 -0.171187 0.076770 -0.636858 0.255245 0.309587 0.635216 -0.035494 -0.094551 0.383738 -0.105186 -0.383545 -0.113527 0.345736 0.010742 -0.208908 -0.290369 0.272931 0.835389 0.890232 0.815330 0.919889 1.199369 0.483656 0.478583 -0.388233 0.038287 0.256996 -0.301640 0.119028 0.151338 0.391113 0.520493 0.918905 0.228226 0.248723 -0.401386 0.346356 0.379501 -0.108461 0.222463 -0.225681 0.007957 -0.575822 -0.539495 -0.164559 0.737070 0.497079 0.497215 0.509338 1.254755 1.012670 -0.051774 -0.814351 0.174803 0.174670 -0.342163 -0.048894 -0.561891 0.058912 0.567286 0.922434 0.983170 0.598387 -0.057504 0.182245 -0.280963 0.010515 0.095389 -0.401448 0.401982 -0.413953 -0.442135 -0.000893 0.486489 0.474626 0.298938 0.981411 0.676123 0.327319 -0.987582 -0.115459 0.817420 0.280987 0.001789 0.089184 0.098605 0.258393 0.728847 0.435939 0.767094 0.482538 -0.384156 -0.398771 -0.305819 0.211980 -0.404490 -0.086794 -0.290588 -0.150659 -0.192775 -0.429252 -0.065226 0.587883 -0.119064 -0.392623 -0.050225 0.913740 -0.148787 0.342028 1.168695 0.114870 -0.412083 0.287647 -0.101349 0.447596 0.600569 0.929103 0.739334 -0.182429 -0.112300 -0.137857 0.170901 0.148379 0.437080 0.345861 -0.255660 -0.732192 -0.281190 0.217951 0.297172 0.133214 0.207512 -0.104469 0.685437 0.370913 -0.102069 -0.360180 -0.167436 -0.195600 -0.258796 -0.614419 -0.305600 0.376566 0.230777 0.535972 0.015581 -0.534139 0.089711 -0.042780 -0.223621 -0.318053 -0.292336 0.369330 0.221916 -0.566301 0.097085 -0.337014 -0.189067 -0.313445 -0.027833 0.364924 1.154560 0.648312 0.176413 -0.599712 -0.888193 -0.230384 -0.190604 0.083880 -0.105859 -0.380204 0.307601 0.072612 -0.197870 -0.320025 -0.173946 -0.046721 0.306003 -0.326535 -0.373804 -0.514887 -0.203415 -0.485038 -1.177804 -0.690358 0.132110 0.590906 0.108019 0.450823 0.368942 0.673060 0.302612 -0.527995 -0.843208 -0.489422 -0.210756 -0.489527 0.819310 0.200004 0.063264 -0.301555 -0.791956 -0.861979 0.403093 -0.308170 0.410485 -0.112749 0.159518 0.102262 -0.019433 -0.270703 -0.518500 -0.208428 -0.537163 0.571590 0.239780 0.528197 0.962361 1.182550 0.109364 0.254095 0.175320 0.565319 0.508184 0.203743 0.503485 0.186702 -0.206786 -0.144159 -0.642720 -0.298730 -0.687020 0.258130 -0.353652 -0.125650 -0.439442 -0.519170 0.100179 -0.453634 -0.657791 -0.963182 -0.727901 -0.544549 -0.173192 0.505616 -0.015224 0.829187 0.768969 0.445906 0.882934 0.446249 0.059530 0.424231 0.049191 0.100259 -0.629565 -1.071020 -0.886053 -0.829682 -0.703968 0.322851 -0.285902 0.164309 0.275986 -0.139146 -0.553643 -0.234829 -0.909686 -0.687607 -0.804037 -0.791021 -0.614586 -0.456587 0.795555 1.116163 1.550095 0.790752 1.094715 1.115008 0.617867 0.388245 -0.271736 -0.425883 -0.349693 -0.550293 -0.473189 -0.131627 0.320535 0.322368 0.491716 -0.252598 0.173592 -0.294186 0.389568 -0.337733 -0.335278 -0.108662 -0.836449 -0.168657 -0.544680 -0.301476 -0.519817 0.615404 0.793768 0.872362 -0.212235 0.018815 -0.500188 -0.020363 -0.397593 -0.197635 -0.529770 -0.071338 -0.500152 -0.169743 0.070381 0.417949 -0.404987 0.037542 0.225209 -0.413271 0.284944 -0.199825 -0.328485 0.032109 0.203093 0.089885 -0.156364 -0.834551 -0.192938 -0.719661 -0.165512 -1.165559 -0.863225 -0.087522 0.093452 -0.422429 -0.122662 -0.370613 -0.269232 0.112020 0.142507 0.386922 0.372811 -0.214104 -0.181591 -0.056425 -0.300687 -0.086578 0.481117 0.424522 0.000151 0.263404 -0.270549 0.130449 -0.276867 -0.641536 -0.260431 -0.866126 -0.875362 -0.687129 -0.589856 -0.697097 -0.396426 -0.132744 -0.696058 -0.162884 -0.292808 0.005784 0.062589 0.224007 0.120747 0.074112 0.120155 -0.006442 0.360008 0.438565 0.437133 -0.440679 -0.149911 0.353683 0.366122 0.221279 0.114894 -0.340679 -0.040416 -0.633977 -0.336010 -0.455305 -0.560975 0.035428 -0.041210 -0.069614 -0.634583 -0.347189 0.006974 -0.287202 0.250680 0.325771 0.375536 -0.059212 0.049777 -0.003717 -0.485099 -0.330067 0.489841 0.374909 -0.407816 0.330904 0.352145 -0.067111 0.306547 0.370547 -0.239713 -0.132549 -0.391156 0.338637 -0.028905 0.135749 -0.356018 0.417926 -0.010981 -0.457864 0.194538 -0.007498 -0.186055 -0.260085 0.292070 -0.374334 -0.434315 0.167607 0.066455 0.115462 -0.336110 0.081355 0.285395 -0.346269 -0.043736 0.393892 -0.419295 -0.109555 -0.145694 0.425929 -0.191432 0.157784 -0.078433 0.025456 0.124453 -0.367972 -0.262083 0.378242 -0.434641 0.227100 0.422205 0.262853 -0.215196 -0.233329 -0.497233 -1.660669 
-0.421796 -0.143882 0.309967 0.220056 -0.190445 0.146948 0.341846 0.327993 -0.355009 -0.392509 -0.442271 0.272740 -0.249014 0.228905 -0.004924 0.079493 0.297466 0.328217 0.005171 0.049553 0.315074 -0.362621 -0.497908 -0.460164 0.293964 0.374681 0.488152 0.128544 0.427628 0.422180 -0.101270 -0.494167 -0.221702 -0.291303 0.225888 0.087067 0.317450 0.038174 -0.098542 -0.499365 0.175226 -0.026425 0.281763 0.447146 -0.294855 -0.231555 0.005705 0.499947 -0.403332 -0.489125 0.049499 0.411742 -0.351745 0.051591 0.451578 0.442219 -0.073728 0.439730 0.070763 -0.146099 0.361910 0.469493 -0.140266 -0.374965 -0.378317 -0.465129 0.163446 -0.486869 0.156271 -0.296977 -0.366679 -0.155772 0.042545 0.223268 -0.283031 0.319410 -0.424403 0.260492 0.319907 -0.327037 0.271375 -0.130594 -0.415294 0.419630 0.420998 -0.463716 0.361850 -0.152730 0.476014 -0.067388 0.201169 0.337897 -0.098071 -0.442661 0.412699 -0.089569 -0.756467 -0.316115 -0.409207 -0.058403 0.113108 -0.252925 -0.824168 -0.262465 -0.166574 -0.222900 -0.325350 0.028323 -0.359061 -0.393141 0.204861 0.415136 -0.023147 0.290405 0.334771 -0.102148 0.326761 0.191101 0.137814 0.072020 -0.701450 -0.607727 -0.465195 -0.109826 -0.262604 -0.045838 -0.330252 0.163514 -0.284018 -0.216941 -0.251763 -0.215125 -0.024953 0.064660 0.285005 0.502887 0.479869 0.427662 -0.137436 -0.391748 -0.462385 -0.430776 -0.475768 0.014468 0.359629 0.354398 0.210573 -0.293954 -0.753560 -0.844076 -0.815977 -0.012831 -0.648797 -0.179212 0.103622 0.426488 0.070649 0.004913 -0.339430 -0.191440 -0.076780 0.399397 0.065864 0.295269 -0.139872 0.361980 -0.244196 -0.235586 0.321211 0.122207 -0.125247 0.358826 0.191431 -0.170042 -0.541730 -0.630763 -1.173467 -1.290294 -0.872038 -0.174423 0.053538 0.214380 0.400728 -0.572231 -0.207485 -0.110122 -0.306416 0.360693 0.030618 0.720969 0.536533 -0.040042 0.152528 0.332132 0.023838 0.440930 0.317282 0.282521 -0.293411 0.138492 -0.095281 -0.020503 -0.287065 -0.880207 -0.257572 -0.632474 -0.629434 -0.776361 -0.477335 0.408056 -0.869292 -1.172157 -1.013283 -0.609881 -1.130674 -0.398704 -0.017944 0.503476 -0.175771 -0.038392 0.171287 0.152445 -0.094690 -0.133286 0.175580 0.427122 -0.192356 -0.007139 0.208850 0.018815 -0.465697 -0.885534 -1.097030 -0.362705 -0.806687 -0.719829 -0.013332 0.484446 -0.670860 -0.331294 -0.190176 -0.216424 -0.069451 -0.562506 0.379503 0.568010 0.440734 -0.286315 0.243412 0.372225 -0.011268 -0.069306 0.141256 0.392015 0.297408 -0.183164 0.318367 -0.402499 0.212330 -0.291101 -0.449608 -0.024204 -0.366192 -0.100730 0.044616 0.487117 0.307009 -0.470206 0.549707 0.160367 0.510483 -0.262021 -0.014439 -0.151929 0.323853 -0.036597 -0.043985 0.127526 0.068930 -0.415300 0.019442 -0.442338 0.015394 -0.339302 0.449650 -0.193766 -0.145742 0.044335 -0.532886 -0.852691 -0.964253 -1.235153 -0.481121 0.770844 0.913058 0.868799 1.132225 0.578659 0.284852 -0.331262 -0.033488 -0.150703 0.411501 -0.365411 -0.429304 0.266760 0.006356 -0.049078 -0.105713 -0.424714 0.035622 0.413729 -0.367052 -0.454462 -0.444255 -0.473235 -0.396809 -0.553004 -0.773241 -0.812900 0.257800 0.541458 1.689822 0.756182 0.164351 0.168985 -0.075280 -0.027429 -0.888923 0.037689 -0.126305 0.280202 -0.178766 -0.150309 0.380117 -0.105185 -0.383545 -0.113527 0.345736 0.010742 -0.040536 -0.124306 -0.082339 0.065989 -0.270673 -0.656557 -1.279986 -1.056630 -0.493748 0.770685 1.030853 0.972735 -0.074741 -0.433076 -0.247133 -0.358954 0.065673 0.193648 0.113732 -0.400559 0.049473 -0.481713 0.271243 0.379504 -0.108461 0.222463 -0.225681 0.007994 -0.405840 -0.386307 -0.487586 0.042213 -0.202765 -0.688304 -1.940786 -1.091968 0.167974 0.702856 1.055702 0.665607 -0.059844 -0.885798 -0.366291 -1.084171 -0.129000 0.125936 0.132730 0.019972 0.049398 -0.203216 0.100354 -0.280950 0.010515 0.095389 -0.401443 0.402054 -0.182148 -0.133462 -0.096273 -0.111253 -0.209573 -0.678395 -1.261061 -0.953533 0.129551 0.201747 1.338313 0.853978 -0.622348 -1.089143 -0.682879 -0.622120 0.145368 -0.041940 -0.269736 -0.035987 -0.107754 -0.391884 -0.204719 -0.305818 0.211980 -0.404490 -0.086765 -0.277508 0.171814 -0.010695 -0.381785 -0.625473 0.052551 -0.436252 -0.984887 -0.673815 0.741115 0.887509 0.788571 0.336768 -0.667103 -1.346581 -0.323753 -0.301248 0.200071 -0.262278 0.205631 0.107449 -0.528113 -0.185650 0.080077 0.177230 0.148379 0.437080 0.371413 -0.139644 -0.490368 -0.244752 0.047943 -0.196665 -0.291689 -0.319817 -0.594259 -0.550783 -0.210776 0.665231 0.316506 -0.362152 -0.649623 -0.880067 -0.819541 -0.695842 -0.226374 -0.283533 -0.183413 -0.228270 -0.616019 0.128742 0.110925 -0.206664 -0.318053 -0.292336 0.470566 0.330325 -0.302129 0.246077 -0.546845 -0.856721 -0.943671 -0.325595 -0.347759 -0.215624 0.056873 0.661220 0.726693 -0.083410 -0.536162 -0.495016 -0.328636 -0.650586 -0.966328 -0.109333 -0.364816 -0.003957 -0.106085 -0.177333 0.011436 0.306002 -0.326535 -0.373804 -0.400661 -0.144589 -0.206060 -0.701725 -0.672358 -0.552109 -0.245373 -0.748386 -0.201812 -0.351752 -0.321311 0.369317 0.908481 -0.602360 -0.895850 -0.423659 -0.848153 -0.003643 -0.793933 -0.696429 -0.402020 -0.338027 -0.347138 0.480405 -0.353752 0.451882 -0.112749 0.159518 0.216488 0.060716 0.212331 0.095342 0.094653 -0.714655 0.186450 -0.807058 0.034589 0.077034 -0.213165 -0.049154 0.291769 -0.384750 0.110750 0.163105 -0.666750 -1.099748 -0.714728 -0.481720 0.083031 -0.155461 0.315456 -0.173496 0.371308 -0.335910 -0.125650 -0.439442 -0.443167 0.261601 0.137672 0.180032 -0.298669 -0.015065 0.294928 -0.101438 0.255023 -0.249390 -0.416890 -0.497023 -0.384939 0.195437 -0.143111 -0.534065 -0.560463 -0.986888 -0.370545 -0.336054 -0.613922 -0.509120 -0.311745 -0.241441 0.346033 -0.285902 0.164309 0.275986 -0.139554 -0.461342 0.248249 0.090906 0.364544 0.116688 -0.196461 -0.339266 -0.496499 0.030355 -0.372400 -0.307996 -0.217427 0.131389 0.298349 -0.060971 -0.795510 -1.201787 -0.761522 -0.247165 -0.249668 -0.352923 -0.023092 0.443913 0.311792 0.491716 -0.252598 0.173592 -0.294186 0.411711 -0.103903 0.271025 0.550493 -0.109302 0.583073 0.374979 0.183644 0.004195 -0.045160 0.283788 0.815440 0.157375 0.336061 -0.266162 -0.062964 -0.662071 -0.485183 -0.655272 -0.126228 -0.619300 -0.270993 0.043176 0.413417 -0.404987 0.037542 0.225209 -0.413271 0.284944 -0.119985 -0.029204 0.419453 0.479752 0.495059 0.414778 0.177882 1.342524 0.324388 0.978152 0.085749 0.223208 0.481554 0.277828 -0.025912 -0.108112 -0.598045 -0.411979 0.103140 0.053421 0.168708 0.347662 -0.214104 -0.181591 -0.056425 -0.300687 -0.086578 0.481117 0.424732 0.050706 0.283312 -0.327034 -0.178464 -0.426377 -0.575674 -0.114236 -0.910229 -0.561028 -0.195614 -0.075387 -0.525109 -0.310191 0.098221 -0.460163 -0.154700 -0.348884 0.020098 0.071927 0.194252 0.120747 0.074112 0.120155 -0.006442 0.360008 0.438565 0.437133 -0.440679 -0.153806 0.325676 0.200901 -0.084411 -0.171770 -0.555569 -0.486035 -0.995383 -0.515497 -0.527914 -0.664772 -0.199953 0.125817 0.243749 -0.432711 -0.199498 0.042420 -0.297328 0.266031 0.325771 0.375536 -0.059212 0.049777 -0.003717 -0.485099 -0.330067 0.489841 0.374851 -0.393023 0.369660 0.332625 -0.163678 0.246383 0.156569 -0.445443 -0.280098 -0.623182 0.321864 0.071142 0.035563 -0.298141 0.427968 -0.010818 -0.456037 0.197494 0.057704 -0.155535 -0.260085 0.292070 -0.374334 -0.434315 0.167607 0.066455 0.115462 -0.336110 0.081355 0.285395 -0.346269 -0.043736 0.393892 -0.419295 -0.109506 -0.149359 0.399728 -0.194842 0.166886 -0.044536 0.033807 0.124454 -0.367972 -0.262083 0.378242 -0.434641 0.227100 0.422205 0.262853 -0.215196 -0.233329 -0.497233 -1.636468 
EPOCH 2
-0.421796 -0.143882 0.309967 0.220056 -0.190445 0.146948 0.341846 0.327993 -0.355009 -0.392509 -0.442271 0.272740 -0.249014 0.228905 -0.004924 0.079493 0.297466 0.328217 0.005171 0.049553 0.315074 -0.362621 -0.497908 -0.460164 0.293964 0.374681 0.488152 0.128544 0.427628 0.422180 -0.101270 -0.494167 -0.221702 -0.291303 0.225888 0.088933 0.408241 0.106636 -0.099148 -0.539662 0.155918 -0.037391 0.053608 0.045765 -0.199374 -0.136698 0.005808 0.313417 -0.478628 -0.490816 0.049359 0.411742 -0.351745 0.051591 0.451578 0.442219 -0.073728 0.439730 0.070763 -0.146099 0.361910 0.469493 -0.140266 -0.348889 -0.335531 -0.352476 0.248285 -0.660930 -0.131316 -0.590048 -0.946093 -0.797201 0.064034 0.131101 -0.472221 0.116547 -0.561085 0.029408 0.161124 -0.422054 0.214619 -0.130594 -0.415294 0.419630 0.420998 -0.463716 0.361849 -0.152730 0.476014 -0.067388 0.204183 0.290378 -0.149083 -0.185937 0.704159 0.057106 0.097268 0.476389 -0.260996 -0.191918 -0.447083 -0.847421 -0.822719 -0.226287 -0.202473 -0.338578 -0.475523 -0.194424 -0.560515 -0.446936 0.205700 0.415136 -0.023147 0.290405 0.334766 -0.102149 0.319263 0.226131 0.335735 0.503525 -0.031327 0.663799 0.986577 1.164258 1.185026 1.065607 0.099421 0.655749 0.126301 -0.607975 -0.639874 -0.324413 -0.664993 -0.752752 -0.414812 -0.047377 0.259125 0.400736 -0.136476 -0.390906 -0.462385 -0.430776 -0.475769 0.014777 0.388624 0.483043 0.688109 0.760059 0.881033 1.196959 0.978626 0.902397 0.329399 0.117054 -0.059604 0.758396 1.721728 1.027970 0.453038 -0.213777 -0.728534 -0.555343 -0.732438 -0.765243 -0.586260 0.369420 -0.241320 -0.234342 0.321211 0.122207 -0.102311 0.365164 0.199996 -0.101296 0.378655 0.766719 0.724273 0.465118 0.125124 0.921974 0.881921 0.494270 0.749157 0.122719 1.223160 1.213888 0.648012 0.412773 -0.869561 -0.006401 -0.230504 -1.130239 -0.287854 0.353206 0.023838 0.440930 0.317282 0.282521 -0.192355 0.144480 -0.090071 0.313640 0.702451 0.587350 1.173159 0.752236 0.307597 0.522673 0.069350 0.988501 0.537478 -0.393235 -0.230509 0.245901 -0.082006 0.389508 0.030077 0.331543 -0.432280 -0.667178 -0.062850 0.173887 -0.096717 -0.133286 0.175580 0.427122 -0.111099 -0.005170 0.278381 0.448439 0.327781 0.543951 -0.051945 0.239268 0.584108 1.045962 0.930614 0.841007 0.617846 0.485372 0.900034 0.334684 0.639485 0.248034 0.904949 0.587313 0.628297 -0.298643 0.019993 0.376583 -0.011268 -0.069306 0.141256 0.392015 0.350136 -0.182978 0.406639 -0.025228 0.568701 0.098584 -0.336827 0.573880 0.563870 0.495160 0.060658 -0.028416 0.909981 -0.281185 0.953995 0.276790 0.296168 0.246112 0.347124 0.276356 0.859447 -0.090391 -0.256418 0.128912 0.069238 -0.415300 0.019442 -0.442338 0.041987 -0.335671 0.458620 -0.504819 -0.333373 -0.466682 -0.429627 -0.614474 -0.924237 -1.342911 -1.526223 -0.677283 -0.369336 -0.271108 0.378413 0.079138 0.404706 0.113973 0.442461 0.196003 0.734779 -0.424461 -0.461043 0.296620 0.017900 -0.049078 -0.105713 -0.424714 0.035622 0.417850 -0.778707 -1.576866 -1.585451 -1.977797 -1.533070 -1.598180 -1.380808 -1.392011 -1.448859 -2.105438 -1.677383 -1.798096 -0.833706 0.271514 0.338262 0.324311 -0.360624 0.181833 -0.314134 -0.147613 -0.319379 -0.134092 0.380117 -0.105186 -0.383545 -0.113527 0.345736 -0.006643 -0.637489 -1.574948 -2.287378 -2.108982 -2.131940 -1.868740 -1.598762 -2.032153 -2.346918 -1.899475 -2.191525 -0.757032 -0.224871 0.059989 0.609696 -0.110295 -0.562890 -0.445385 -0.949093 -1.232701 -0.147114 -0.358740 0.373535 0.379583 -0.108461 0.222463 -0.225681 -0.068762 -1.006175 -1.892784 -2.596178 -2.069150 -1.806659 -1.149553 -1.276839 -0.825721 0.089217 -0.015431 -0.875560 -0.380607 -0.266308 0.149420 0.221585 -1.503400 -0.781327 -0.916376 -0.828646 -0.727053 -0.170057 0.202475 0.320575 -0.280621 0.010515 0.095389 -0.403834 0.268219 -0.714415 -1.253978 -1.675150 -1.340279 -1.000116 -0.659025 0.209162 0.276081 0.407561 -0.281516 0.277119 -0.000993 -0.336055 -0.061962 -0.364298 -1.477341 -0.889693 -0.999021 -0.954704 -0.355472 -0.324446 -0.017863 0.064230 -0.305437 0.211980 -0.404490 -0.100609 -0.321965 0.000787 -0.321435 -1.088613 -1.274008 -0.055182 -0.342217 0.212575 0.154724 0.571328 0.378836 -0.535379 0.044170 0.408005 0.107821 -0.089593 -0.845178 -0.260094 -0.553933 -0.132036 0.229772 -0.403215 0.109453 0.410021 0.231695 0.148379 0.437080 0.362449 -0.100785 -0.220342 0.113920 0.053201 -0.386742 -0.173122 0.167608 -0.301460 -0.294946 -0.227239 0.083052 -0.809151 -0.007157 0.668419 0.047537 -0.460587 -0.794553 0.050277 0.134098 0.338425 0.683298 0.138972 0.736857 0.423471 -0.063951 -0.318053 -0.292336 0.470759 0.562249 0.520432 1.321905 0.742153 -0.132780 -0.583934 -0.085843 -0.635751 -0.228244 -0.017433 0.045163 0.037211 0.613451 0.705989 0.372617 0.598282 0.149683 -0.008523 0.600500 0.374496 1.167982 0.884397 0.386447 0.056247 0.324034 -0.326535 -0.373804 -0.400609 0.170773 0.932542 1.101310 1.248784 0.827148 0.916657 0.020536 -0.974712 -1.483021 0.078982 0.701768 0.399101 0.398537 0.224291 0.595317 0.321020 0.641536 -0.258907 -0.407481 0.175498 0.745971 0.949434 1.256301 -0.333463 0.423961 -0.112749 0.159518 0.216519 0.419721 1.528149 1.735905 1.773930 0.667812 1.078302 0.548572 0.089331 0.142377 0.306004 -0.180160 0.122085 0.258884 0.318504 0.368232 0.075953 -0.144363 0.275861 0.550471 1.640086 1.166394 1.582219 0.399628 0.478165 -0.353652 -0.125650 -0.439442 -0.443146 0.435247 1.306794 1.750908 0.765756 0.875144 1.090911 0.849512 0.484963 -0.046154 -0.679659 -0.886788 -0.584027 0.052819 -0.598391 -1.175000 -0.422202 0.360722 0.959586 0.791814 1.208148 0.832458 0.426904 0.096973 0.440958 -0.285902 0.164309 0.275986 -0.139554 -0.342776 0.914574 0.650000 0.714399 0.569414 0.125016 0.443893 -0.353434 -0.191569 -0.851827 -0.306855 -0.789882 -0.595936 -0.182128 -0.411096 -0.220623 0.550163 0.616173 1.487773 1.387353 0.672431 0.244476 0.544781 0.323247 0.491716 -0.252598 0.173592 -0.294186 0.459264 0.176597 0.042117 0.283358 -0.547619 0.290775 0.562507 1.011591 -0.154502 0.520851 0.287719 -0.186105 -0.635508 -0.117935 -0.300621 0.900553 0.783185 0.660556 0.275720 0.818249 0.083687 -0.056051 0.087697 0.413417 -0.404987 0.037542 0.225209 -0.413271 0.279536 -0.173296 -0.714832 -0.599027 -0.993068 -0.938462 -0.555742 -0.859006 0.005544 -0.110112 0.403032 -0.542586 -0.359539 0.497489 0.533869 0.106168 -0.039441 -0.544825 -0.386654 0.391518 0.383701 0.422243 0.394338 -0.214104 -0.181591 -0.056425 -0.300687 -0.086578 0.480666 0.409194 -0.232532 0.020682 -0.558347 -0.389079 -0.530470 -0.515289 -0.055039 -0.471342 -0.204958 -0.234084 -0.328632 -0.635597 -0.487914 -0.329951 -0.909795 -0.572048 -0.631643 -0.134200 -0.018666 0.225498 0.126381 0.074112 0.120155 -0.006442 0.360008 0.438565 0.437133 -0.440679 -0.187495 0.235116 0.318821 0.120716 0.063753 -0.280539 0.069101 -0.413120 -0.085894 -0.386221 -0.368296 -0.092673 -0.185059 -0.206343 -0.864874 -0.596893 -0.326560 -0.456569 0.175702 0.302860 0.375536 -0.059212 0.049777 -0.003717 -0.485099 -0.330067 0.489841 0.374909 -0.411075 0.311817 0.335914 -0.071728 0.337168 0.417419 -0.187522 0.029323 -0.353986 0.306679 0.142065 0.203617 -0.246546 0.343106 -0.112657 -0.533119 0.124467 0.055435 -0.155535 -0.260085 0.292070 -0.374334 -0.434315 0.167607 0.066455 0.115462 -0.336110 0.081355 0.285395 -0.346269 -0.043736 0.393892 -0.419295 -0.109506 -0.145624 0.425929 -0.191432 0.166998 -0.044535 0.033808 0.124454 -0.367972 -0.262083 0.377355 -0.435236 0.227100 0.422205 0.262853 -0.215196 -0.233329 -0.497233 -2.958794 
-0.421796 -0.143882 0.309967 0.220056 -0.190445 0.146948 0.341846 0.327993 -0.355009 -0.392509 -0.442271 0.272740 -0.249028 0.228875 -0.004924 0.079493 0.297466 0.328217 0.005171 0.049553 0.315074 -0.362621 -0.497908 -0.460164 0.293964 0.374681 0.488152 0.128544 0.427628 0.422180 -0.101270 -0.494167 -0.221702 -0.291303 0.225265 0.078508 0.321072 0.066488 -0.084157 -0.504226 0.164021 -0.039294 0.271705 0.424089 -0.300543 -0.263885 -0.042271 0.499947 -0.408157 -0.553606 -0.031213 0.405162 -0.351745 0.051591 0.451578 0.442219 -0.073728 0.439730 0.070763 -0.146099 0.361910 0.469493 -0.169856 -0.438593 -0.400658 -0.443256 0.176681 -0.562630 0.016001 -0.544032 -0.619407 -0.244698 0.066058 0.133676 -0.357236 0.285503 -0.444487 0.239062 0.219457 -0.365199 0.271375 -0.130594 -0.415294 0.419630 0.420998 -0.463716 0.361849 -0.152730 0.476014 -0.069880 0.135140 0.241407 -0.212915 -0.576496 0.291588 -0.100700 -0.592433 -0.036542 -0.132668 0.020614 0.017726 -0.141306 -0.585128 -0.232000 -0.173250 -0.263454 -0.326465 0.027033 -0.356239 -0.392554 0.205700 0.415136 -0.023147 0.290405 0.334766 -0.102149 0.314749 0.037194 0.023492 0.039259 -0.578410 -0.359143 -0.224157 -0.307634 -0.498719 -0.429072 -1.298140 -1.084168 -1.322040 -0.590444 -0.590481 -0.745900 -0.525024 -0.204039 0.022589 0.251587 0.465333 0.430168 -0.136476 -0.390905 -0.462385 -0.430776 -0.475769 0.014468 0.334554 0.107437 0.091571 -0.269325 -0.601458 -0.507747 -0.561185 -0.213469 -0.777006 -1.089436 -1.087872 -0.736522 -0.436303 -0.733741 -0.823566 -1.145597 -1.030246 -0.395941 -0.594709 -0.303073 -0.214895 0.391043 -0.241317 -0.234341 0.321211 0.122207 -0.125247 0.358822 0.161864 -0.348932 -0.452066 -0.505820 -1.068930 -0.809827 -0.744104 -0.067377 0.296113 0.334291 0.604833 0.165242 0.840721 0.289476 0.612732 0.319297 -0.455561 0.503785 0.133720 -0.404828 0.124024 0.399603 0.023838 0.440930 0.317282 0.282521 -0.293414 0.138359 -0.244186 -0.309667 -0.459190 -1.077032 -0.089494 0.101458 0.063343 -0.011174 0.272074 0.921183 0.240392 0.731749 1.190932 0.483688 0.623261 0.869706 0.117593 0.570964 -0.226870 0.098614 0.287418 0.314364 -0.096716 -0.133286 0.175580 0.427110 -0.192358 -0.007611 0.037243 -0.266441 -0.525676 -0.576603 -0.235228 0.036540 -0.137812 -0.176366 0.467166 0.771581 0.130264 0.712796 0.864285 0.318851 0.810833 -0.002845 0.701354 0.543815 0.508448 -0.095944 0.337774 0.499358 -0.011268 -0.069306 0.141256 0.392015 0.297406 -0.241473 0.164514 -0.510639 0.337744 0.227641 0.442466 0.526286 0.036933 0.200683 0.251103 0.493490 -0.040203 -0.305701 0.586637 -0.074421 0.329511 0.318504 0.149684 0.046004 0.525105 0.099795 -0.014061 0.147057 0.068705 -0.415300 0.019442 -0.442338 0.015393 -0.440888 0.297310 -0.084322 0.262057 0.718250 0.599740 0.296891 0.260148 0.081668 0.039044 0.228917 -0.401077 -0.185810 0.568493 0.223468 0.208092 -0.134857 0.566119 0.245675 0.916716 -0.137999 -0.327882 0.282933 0.005854 -0.049078 -0.105713 -0.424714 0.035622 0.399103 -0.236875 0.127953 0.347341 0.383242 0.993295 1.343846 1.368807 1.255714 1.056123 -0.760871 -0.325262 -0.766611 0.075431 0.441076 0.621496 0.329766 -0.039553 0.613461 0.376114 0.280022 -0.197217 -0.211124 0.379717 -0.105186 -0.383545 -0.113527 0.345736 0.016663 0.290468 0.723806 1.158275 1.097512 1.016407 1.020958 1.678903 1.673180 -0.195642 -0.241614 -0.173278 0.378787 0.811148 0.627760 0.622973 0.399801 0.872455 0.683957 0.343764 -0.483570 -0.070054 -0.572547 0.330490 0.362676 -0.108461 0.222463 -0.225681 0.025464 -0.044289 0.626899 0.814084 0.877972 0.818199 0.422652 0.890046 0.973271 0.300845 -0.100144 -0.347062 0.295042 0.254130 0.358123 0.817476 0.001097 0.563517 0.481814 -0.274565 -0.508513 -0.191403 -0.247011 0.178208 -0.351455 0.010515 0.095389 -0.401467 0.426613 0.088367 0.683578 0.717323 0.556833 0.709375 -0.078152 0.968792 0.256552 -0.238226 -0.441086 -0.265323 -0.042031 -0.195564 0.903702 0.794016 0.463271 0.713825 -0.005180 -0.838478 -0.528347 -0.372853 -0.498646 -0.180159 -0.313651 0.211980 -0.404490 -0.094021 -0.270644 0.452366 0.687201 0.138514 -0.118389 0.857022 0.274554 -0.026675 -0.383340 -0.083879 -0.966164 -1.043367 -0.121326 0.270584 -0.184986 0.241269 0.573773 0.429300 -0.553519 -0.292981 -0.231665 -1.086662 -0.537327 0.094613 0.177230 0.148379 0.437080 0.353883 -0.258516 -0.421624 0.303927 -0.029089 0.138470 0.200028 -0.595671 -0.362735 -0.464666 -0.859190 -1.147548 -1.509621 -0.945474 -0.548998 -0.311801 -0.470886 -0.169679 0.005624 -0.639947 -0.668839 -0.570263 -1.090156 -0.117594 0.107322 -0.206664 -0.318053 -0.292336 0.452033 0.095391 -0.562568 0.286121 -0.795650 -0.966242 -1.080381 -0.327913 -0.252107 -0.142425 -0.564674 -0.203180 -0.533990 -0.599457 -0.234549 0.297400 0.349241 -0.266446 -1.092820 -0.581038 -0.881996 -0.521116 -0.545727 -0.435272 -0.011353 0.306003 -0.326535 -0.373804 -0.403007 -0.444942 -0.494134 -1.011623 -1.262120 -0.716321 -0.191799 -0.607574 -0.889770 -1.417997 -1.293516 -0.641163 -0.388682 -0.596828 -0.728338 0.118731 -0.340960 0.194759 -0.502182 -1.000370 -1.193338 -0.992132 -0.915896 0.180393 -0.355346 0.410485 -0.112749 0.159518 0.216488 -0.143992 -0.230276 -0.556857 -0.787792 -1.534299 -0.419130 -1.311925 -1.445437 -0.865613 -0.838782 -1.011368 -0.303649 -1.137114 -0.387430 -0.261521 -0.418591 -0.526923 -0.286329 -0.187479 -0.084598 -0.397442 0.134591 -0.189746 0.414186 -0.353652 -0.125650 -0.439442 -0.430205 0.121723 -0.208000 -0.555834 -1.097388 -0.990740 -1.007859 -1.336759 -0.963326 -1.121927 -0.860533 -0.874951 -0.855186 -0.680432 -0.575003 -0.873082 -0.157372 -0.523997 -0.090279 0.014344 -0.225608 -0.367496 -0.223890 -0.213314 0.361186 -0.285902 0.164309 0.275986 -0.128392 -0.530534 0.113762 -0.647600 -0.253827 -0.520223 -0.887154 -1.105177 -1.213810 -0.811976 -1.191901 -1.124323 -1.328728 -0.397266 -0.168267 -0.668879 -0.414895 -0.508605 -0.062059 0.465668 0.192265 -0.009480 0.154316 0.466894 0.311594 0.491716 -0.252598 0.173592 -0.294186 0.388869 -0.206353 -0.412161 -0.029680 -0.681438 0.293198 0.003565 -0.121816 -1.041067 -0.369114 -0.811565 -0.453790 -0.813074 -0.238923 -0.522438 0.397508 -0.262707 0.408071 0.078781 0.531410 0.102858 0.094710 0.072344 0.413417 -0.404987 0.037542 0.225209 -0.413271 0.279965 -0.299900 -0.451859 0.003354 0.239151 0.674095 0.376256 -0.312906 0.055508 -0.103332 0.260038 -0.452132 -0.362903 0.461823 0.578837 0.145997 0.359497 0.138769 0.331089 0.694972 0.624538 0.699229 0.373257 -0.214104 -0.181591 -0.056425 -0.300687 -0.086578 0.480702 0.421535 -0.018866 0.531830 0.116778 1.025802 0.677911 0.483993 0.797900 0.640967 0.092214 0.298423 0.568477 0.754148 1.049248 1.180380 0.469334 0.816229 0.403644 0.483584 0.264142 0.301596 0.104497 0.074112 0.120155 -0.006442 0.360008 0.438565 0.437133 -0.396656 0.006002 0.676215 0.712935 0.774983 1.116461 0.977712 0.908514 0.383079 0.569533 0.202251 0.074664 0.626152 0.672876 0.684144 0.074677 0.143076 0.448405 -0.032238 0.341396 0.331350 0.375536 -0.059212 0.049777 -0.003717 -0.485099 -0.330067 0.506977 0.482731 -0.335057 0.497630 0.484215 0.083037 0.587734 0.538227 -0.149877 0.254993 0.070390 0.566157 0.245138 0.276837 -0.190217 0.522783 0.143734 -0.377728 0.210852 0.058015 -0.155535 -0.260085 0.292070 -0.374334 -0.434315 0.167607 0.066455 0.115462 -0.336110 0.081355 0.285395 -0.346269 -0.043736 0.393892 -0.419295 -0.109506 -0.145624 0.435544 -0.183590 0.167001 -0.044535 0.033808 0.124454 -0.367972 -0.262083 0.378242 -0.434641 0.227100 0.422205 0.262853 -0.215196 -0.233329 -0.497233 -0.751860 
-0.421796 -0.143882 0.309967 0.220056 -0.190445 0.146948 0.341846 0.327993 -0.355009 -0.392509 -0.442271 0.272740 -0.249014 0.228905 -0.004924 0.079493 0.297466 0.328217 0.005171 0.049553 0.315074 -0.362621 -0.497908 -0.460164 0.293964 0.374681 0.488152 0.128544 0.427628 0.422180 -0.101270 -0.494167 -0.221702 -0.291303 0.225891 0.087885 0.356053 0.068421 -0.072516 -0.481325 0.249123 0.091607 0.284074 0.422591 -0.325383 -0.303155 -0.010086 0.560611 -0.340390 -0.405667 0.056427 0.411742 -0.351745 0.051591 0.451578 0.442219 -0.073728 0.439730 0.070763 -0.146099 0.361910 0.469493 -0.140110 -0.323559 -0.159897 -0.251438 0.435524 -0.243331 0.677175 -0.212709 -0.946274 -0.369299 0.093305 0.281156 -0.010796 0.517721 -0.027503 0.866463 0.799953 -0.156139 0.386742 -0.072754 -0.415294 0.419630 0.420998 -0.463716 0.361149 -0.152897 0.476014 -0.088536 0.173808 0.420953 0.042062 -0.124168 0.655803 0.133448 -0.525291 -0.487490 -1.099430 -0.221642 0.208888 0.245602 0.230765 1.280302 1.103594 0.923297 0.754724 0.580321 -0.149921 -0.378995 0.205700 0.415136 -0.023147 0.290405 0.332366 -0.102733 0.326689 0.039315 0.040157 0.025216 -0.705176 -0.137186 0.107120 -0.351209 -0.536798 -0.964101 -2.004824 -0.851844 -0.430462 0.540902 0.538366 1.136349 1.460636 1.490082 0.830576 0.607437 0.623059 0.441202 -0.136476 -0.390905 -0.462385 -0.430776 -0.476102 0.014352 0.336725 0.147708 0.236864 -0.210151 -0.243081 -0.149793 -0.898481 -0.442324 -0.767608 -0.687390 -0.293642 -0.219299 -0.539781 -0.417868 0.053941 0.646288 0.604060 0.606314 -0.072689 0.038832 -0.067422 0.412275 -0.241317 -0.234341 0.321211 0.122207 -0.125247 0.358184 0.191024 -0.172240 -0.221093 -0.176889 -0.585012 -0.879258 -1.000896 -0.248369 0.044998 -0.625991 -0.528009 -0.785547 -0.555789 -0.232499 -0.319899 -0.101615 -0.748396 -0.474890 -0.398562 -0.554160 0.162133 0.426678 0.027363 0.440930 0.317282 0.282521 -0.293411 0.137911 -0.095553 -0.078502 -0.325941 -0.675479 0.184078 -0.031851 -0.303872 -0.544503 -1.249033 -0.909885 -1.937366 -1.518982 -0.930009 -0.637836 -1.523670 -1.415218 -1.727587 -1.391373 -1.478439 -0.473074 0.160538 0.190794 -0.086141 -0.133286 0.175580 0.427122 -0.192356 -0.007311 0.182500 -0.396081 -0.868573 -0.769957 -0.417345 -0.190102 -0.872192 -1.105632 -1.116654 -0.634626 -1.631958 -0.987756 -0.700357 -1.125851 -1.281106 -1.982624 -1.219437 -1.301873 -0.716364 -0.599528 0.150798 0.348568 -0.000693 -0.069306 0.141256 0.392015 0.297408 -0.183663 0.150296 -0.835698 -0.005158 0.014256 0.540424 0.259631 -0.176966 -0.390364 -0.533809 -0.759759 -1.047928 -1.498584 -0.934036 -1.752725 -1.050184 -0.795362 -0.890703 -1.204004 -0.549884 -0.209866 -0.138091 0.127663 0.076704 -0.415300 0.019442 -0.442338 0.015394 -0.342031 0.334517 -0.541244 0.229066 1.093412 0.412196 0.050993 -0.294618 -0.687926 -0.641681 -0.156244 -0.372793 -0.718373 -0.499154 -1.266374 -0.768567 -0.982230 -0.682094 -0.569157 0.162750 -0.246353 -0.303499 0.267848 -0.000773 -0.049078 -0.105713 -0.424714 0.035622 0.413335 -0.525247 -0.818133 -0.054653 0.243869 0.738126 0.248929 1.005633 1.032988 1.190201 0.563733 0.344080 -1.516948 -1.099681 -0.772684 -0.618114 -0.422839 -0.847102 0.204297 0.336608 0.845269 0.314559 -0.005746 0.383657 -0.105186 -0.383545 -0.113527 0.345736 0.010742 -0.336063 -0.476370 0.487893 0.961617 0.887604 0.753397 1.272287 1.776291 0.904669 1.013999 -0.219340 -0.163862 0.476294 -0.255402 -0.035309 0.091714 0.326705 0.565360 1.021242 0.439199 0.522959 -0.232961 0.343693 0.379501 -0.108461 0.222463 -0.225681 -0.012224 -0.756863 -0.520095 0.163989 1.119622 0.682712 0.607241 1.039287 1.653454 1.347622 -0.061671 -1.019250 0.184004 0.541250 -0.067471 0.444870 0.110048 0.094333 0.507718 0.969271 1.264672 0.888593 0.120386 0.175023 -0.280963 0.010515 0.095389 -0.401448 0.341435 -0.505575 -0.451557 0.382453 0.923155 0.884330 0.677544 1.310371 1.016013 0.525972 -1.330611 -0.469701 0.456617 0.065803 0.234741 0.599366 0.763504 0.375940 0.629563 0.581490 0.898181 0.812867 -0.238920 -0.442251 -0.305819 0.211980 -0.404490 -0.086794 -0.374291 -0.233377 -0.225928 -0.156960 0.321351 0.971244 0.123962 -0.274420 0.446186 0.706245 -0.980058 -0.316446 0.448300 -0.296401 -0.431447 0.314978 0.064725 0.353198 0.386666 0.749381 0.938510 0.147524 -0.047853 -0.163313 0.170389 0.148379 0.437080 0.345861 -0.316203 -0.834310 -0.368551 0.274531 0.695986 0.207896 0.410639 -0.292668 0.807895 -0.390800 -0.739712 -0.423279 -0.296361 -0.052042 -0.202469 -0.525329 -0.164842 0.428024 -0.006839 0.435371 0.222847 -0.319426 0.061862 -0.143149 -0.225005 -0.318053 -0.292336 0.369330 0.202066 -0.703601 -0.219365 -0.418433 0.020242 -0.153132 0.234359 0.452373 1.371347 -0.014630 -0.256307 -0.567317 -1.104179 -0.051117 0.213168 0.552865 0.075489 -0.278450 0.229493 0.057038 -0.207535 -0.411610 -0.438149 -0.190131 0.272871 -0.326535 -0.373804 -0.514887 -0.203415 -0.664685 -1.517768 -0.658645 0.274984 0.779998 0.414581 0.631692 0.578951 0.747892 0.156173 -0.601951 -0.649781 0.069492 0.175986 -0.159181 0.772081 0.159488 0.061046 -0.353463 -0.954572 -1.040848 0.181168 -0.358774 0.336952 -0.112749 0.159518 0.102262 -0.019433 -0.431776 -0.725016 -0.081077 -0.430385 0.906897 0.448976 0.668009 1.036553 1.479304 -0.012639 0.270417 0.255193 0.307949 0.218194 -0.174413 0.125434 0.070920 -0.401460 -0.298085 -0.952795 -0.560716 -0.893852 0.170047 -0.353652 -0.125650 -0.439442 -0.519170 0.091036 -0.622055 -0.810616 -0.815248 -0.505060 -0.367468 0.187869 0.828019 0.419612 1.161985 0.874296 0.804837 0.877419 0.173576 -0.383026 0.281100 0.149749 -0.034313 -0.851318 -1.327610 -1.024821 -1.022072 -0.887095 0.160831 -0.285902 0.164309 0.275986 -0.139146 -0.592619 -0.411418 -1.030468 -0.796228 -0.763066 -0.559337 -0.146737 -0.186288 1.013260 1.153907 1.651792 1.183394 1.366349 1.128963 0.529597 0.425669 -0.273130 -0.614661 -0.678509 -0.786174 -0.624109 -0.219726 0.255235 0.297384 0.491716 -0.252598 0.173592 -0.294186 0.348828 -0.453518 -0.478130 -0.378065 -1.139597 -0.394907 -0.481690 -0.164301 -0.554492 0.619960 1.056444 0.968656 -0.159687 0.024672 -0.613707 0.001566 -0.548216 -0.425002 -0.782583 -0.285049 -0.614485 -0.192570 0.062730 0.417949 -0.404987 0.037542 0.225209 -0.413271 0.284944 -0.199825 -0.331813 -0.089264 0.032996 -0.054411 -0.144210 -0.659316 -0.145533 -0.574057 0.045439 -1.076242 -0.955838 -0.290580 -0.149532 -0.487025 -0.294878 -0.590598 -0.464669 0.045758 0.135818 0.386917 0.372810 -0.214104 -0.181591 -0.056425 -0.300687 -0.086578 0.481117 0.424522 -0.001097 0.177713 -0.400386 0.007699 -0.349841 -0.674610 -0.421495 -0.990577 -0.976184 -0.888465 -0.875171 -1.074599 -0.640172 -0.182841 -0.697553 -0.162959 -0.367361 -0.088679 0.003367 0.224006 0.120747 0.074112 0.120155 -0.006442 0.360008 0.438565 0.437133 -0.440679 -0.149911 0.353683 0.366121 0.219228 0.103448 -0.367664 -0.060779 -0.635986 -0.336186 -0.455400 -0.570089 -0.094791 -0.210852 -0.172093 -0.636968 -0.347226 0.006973 -0.295926 0.237884 0.325771 0.375536 -0.059212 0.049777 -0.003717 -0.485099 -0.330067 0.489841 0.374909 -0.407816 0.330904 0.352145 -0.067113 0.299348 0.359390 -0.243979 -0.132624 -0.391227 0.338562 -0.028919 0.127031 -0.431075 0.328219 -0.013058 -0.457871 0.194537 -0.034833 -0.198850 -0.260085 0.292070 -0.374334 -0.434315 0.167607 0.066455 0.115462 -0.336110 0.081355 0.285395 -0.346269 -0.043736 0.393892 -0.419295 -0.109557 -0.145697 0.425876 -0.191500 0.157721 -0.078433 0.025456 0.124452 -0.367978 -0.262092 0.378240 -0.434641 0.227100 0.422205 0.262853 -0.215196 -0.233329 -0.497233 -1.844801 
-0.421796 -0.143882 0.309967 0.220056 -0.190445 0.146948 0.341846 0.327993 -0.355009 -0.392509 -0.442271 0.272740 -0.249014 0.228905 -0.004924 0.079493 0.297466 0.328217 0.005171 0.049553 0.315074 -0.362621 -0.497908 -0.460164 0.293964 0.374681 0.488152 0.128544 0.427628 0.422180 -0.101270 -0.494167 -0.221702 -0.291303 0.225888 0.087019 0.315077 0.036336 -0.099437 -0.499365 0.175226 -0.026425 0.328957 0.565133 -0.279586 -0.231555 0.005705 0.499947 -0.403332 -0.489125 0.049499 0.411742 -0.351745 0.051591 0.451578 0.442219 -0.073728 0.439730 0.070763 -0.146099 0.361910 0.469493 -0.140266 -0.375908 -0.381829 -0.468283 0.159432 -0.488150 0.156475 -0.289136 -0.285105 0.054461 0.100500 0.223270 -0.283031 0.319410 -0.424403 0.260492 0.319907 -0.327037 0.271375 -0.130594 -0.415294 0.419630 0.420998 -0.463716 0.361850 -0.152730 0.476014 -0.067388 0.201169 0.337897 -0.098071 -0.441954 0.430704 -0.060644 -0.792433 -0.261942 -0.227036 0.179904 0.125003 -0.431836 -1.048594 -0.338323 -0.328116 -0.323997 -0.330867 -0.026115 -0.452120 -0.415211 0.204861 0.415136 -0.023147 0.290405 0.334771 -0.102148 0.326761 0.191101 0.137814 0.072020 -0.726872 -0.780433 -0.679669 -0.312155 -0.320803 0.025721 -0.092962 0.228411 -0.314762 -0.435680 -0.382555 -0.325434 -0.109859 -0.035732 0.209802 0.411789 0.395092 0.407361 -0.138111 -0.392423 -0.462385 -0.430776 -0.475768 0.014694 0.359703 0.354537 0.210573 -0.310888 -0.934977 -1.114212 -1.080930 -0.214068 -0.677315 -0.134785 0.130849 0.339048 0.046994 0.157423 -0.206835 0.081419 -0.026798 0.447951 0.057479 0.222964 -0.229188 0.344411 -0.246466 -0.236582 0.321211 0.122207 -0.125247 0.359491 0.191649 -0.179927 -0.610927 -0.765277 -1.338212 -1.494176 -0.938450 -0.094143 0.168364 0.367737 0.352036 -0.751800 -0.359153 -0.136715 -0.291947 0.329372 0.207169 0.803630 0.504889 -0.053315 0.147633 0.300254 0.023838 0.440930 0.317282 0.282521 -0.293411 0.138492 -0.095281 -0.098237 -0.393557 -0.883223 -0.317190 -0.597023 -0.530116 -0.601861 -0.343278 0.432193 -1.028233 -1.209454 -1.266174 -0.804564 -1.289612 -0.393337 -0.044699 0.454965 -0.138767 0.012409 0.166405 0.119776 -0.094690 -0.133286 0.175580 0.427122 -0.192356 -0.007139 0.208850 -0.071951 -0.515573 -0.875586 -1.153609 -0.396794 -0.852161 -0.610757 -0.065971 0.330308 -0.772911 -0.150083 -0.374000 -0.296502 -0.253655 -0.542674 0.225965 0.538570 0.469737 -0.244765 0.260056 0.365586 -0.011268 -0.069306 0.141256 0.392015 0.297408 -0.183164 0.318367 -0.402499 0.212283 -0.319807 -0.534505 -0.159341 -0.367744 -0.066525 -0.085703 0.294925 0.431215 -0.032069 0.414455 0.073812 0.466916 -0.138287 -0.153600 -0.198358 0.363893 -0.008017 -0.045070 0.127526 0.068930 -0.415300 0.019442 -0.442338 0.015394 -0.339302 0.449650 -0.193744 -0.148916 -0.030276 -0.643312 -0.907389 -0.909399 -1.491126 -0.751310 0.784192 1.143028 1.136086 0.857069 0.419804 0.371969 -0.163952 -0.040747 -0.082834 0.416664 -0.368308 -0.430152 0.266760 0.006356 -0.049078 -0.105713 -0.424714 0.035622 0.413743 -0.366938 -0.454314 -0.448491 -0.545049 -0.425543 -0.493318 -0.911192 -1.171401 0.117241 0.800037 2.072856 0.827713 -0.115042 0.179839 0.139269 0.021021 -0.875281 0.028059 -0.126856 0.278736 -0.178951 -0.150397 0.380117 -0.105185 -0.383545 -0.113527 0.345736 0.010751 -0.040204 -0.124212 -0.082584 0.067150 -0.273429 -0.635421 -1.499850 -1.389060 -0.312143 1.005049 1.253533 0.855007 -0.286912 -0.136895 -0.076740 -0.462386 0.039275 0.193730 0.112150 -0.401121 0.049290 -0.481953 0.271210 0.379504 -0.108461 0.222463 -0.225681 0.008162 -0.405546 -0.386339 -0.488378 0.041560 -0.201412 -0.671253 -2.206440 -1.394099 0.373622 0.836631 1.125135 0.681592 0.006425 -0.513945 -0.137784 -1.035985 -0.127897 0.124274 0.131001 0.019208 0.048673 -0.203899 0.099862 -0.280950 0.010515 0.095389 -0.401420 0.402389 -0.182135 -0.134534 -0.097857 -0.112837 -0.220449 -0.716612 -1.493920 -0.933293 0.213699 0.360396 1.492717 0.875600 -0.524017 -0.861101 -0.648420 -0.492453 0.154691 -0.043160 -0.270149 -0.036316 -0.107866 -0.391888 -0.204719 -0.305818 0.211980 -0.404490 -0.086632 -0.277508 0.171814 -0.011705 -0.383374 -0.643023 -0.016726 -0.431110 -0.867310 -0.572545 0.721979 1.026914 1.000324 0.303643 -0.694497 -1.346508 -0.494553 -0.387234 0.175137 -0.262026 0.205666 0.107392 -0.528167 -0.185650 0.080077 0.177230 0.148379 0.437080 0.371500 -0.139644 -0.490368 -0.244752 0.043014 -0.283917 -0.397700 -0.225017 -0.311233 -0.629541 -0.347355 0.900766 0.722842 -0.253167 -0.626293 -0.948379 -0.990892 -0.760137 -0.244164 -0.289386 -0.200177 -0.248525 -0.657558 0.102031 0.084214 -0.206664 -0.318053 -0.292336 0.470566 0.330325 -0.302129 0.246077 -0.619145 -0.982766 -0.946315 -0.122993 -0.297374 -0.559708 -0.004325 0.905997 1.271182 -0.095812 -0.580092 -0.648875 -0.571619 -0.768138 -1.072347 -0.191698 -0.440023 -0.091876 -0.249205 -0.214629 -0.010033 0.306002 -0.326535 -0.373804 -0.400661 -0.144589 -0.206121 -0.702132 -0.790834 -0.603253 -0.061993 -0.554053 -0.396070 -0.605141 -0.352917 0.712833 1.117271 -0.897219 -1.180444 -0.525422 -0.941141 0.000101 -0.818397 -0.777680 -0.539859 -0.463859 -0.400617 0.479884 -0.353752 0.451882 -0.112749 0.159518 0.216488 0.060503 0.211742 0.096027 0.043934 -0.612470 0.450514 -0.587344 -0.089654 -0.115743 -0.304695 0.223694 0.245901 -0.462917 0.039608 0.093616 -0.731819 -1.115813 -0.768436 -0.590206 0.012810 -0.163260 0.310999 -0.176629 0.368658 -0.335910 -0.125650 -0.439442 -0.443167 0.261130 0.136972 0.195996 -0.193937 0.119435 0.523299 0.164086 0.155505 -0.289902 -0.355549 -0.554843 -0.389895 0.132180 0.042951 -0.591328 -0.826964 -1.307931 -0.630648 -0.530317 -0.726081 -0.518094 -0.311627 -0.242372 0.345058 -0.285902 0.164309 0.275986 -0.139554 -0.461535 0.243952 0.112536 0.477242 0.164698 -0.182633 -0.368612 -0.411283 -0.017272 -0.610202 -0.741582 -0.595934 0.175910 0.412487 -0.175259 -0.917820 -1.291720 -0.840714 -0.333558 -0.296121 -0.364465 -0.022928 0.443912 0.311792 0.491716 -0.252598 0.173592 -0.294186 0.411711 -0.112819 0.301944 0.693057 0.074542 0.601191 0.457855 0.384039 -0.274912 -0.827527 -0.429571 0.408844 0.165137 0.337050 -0.257583 0.051241 -0.673082 -0.501481 -0.684173 -0.131872 -0.622811 -0.270993 0.043176 0.413417 -0.404987 0.037542 0.225209 -0.413271 0.284944 -0.121794 0.094383 0.606293 0.633812 0.663419 0.798008 0.402482 1.151588 -0.020325 0.595048 -0.211187 0.164689 0.496906 0.295204 -0.085489 -0.179500 -0.636129 -0.432341 0.103140 0.053421 0.168708 0.347662 -0.214104 -0.181591 -0.056425 -0.300687 -0.086578 0.481117 0.415884 0.039579 0.275968 -0.261199 -0.135285 -0.281238 -0.724500 -0.273538 -1.016734 -0.707941 -0.350965 -0.143308 -0.518164 -0.231857 0.132294 -0.338864 -0.141371 -0.348884 0.020099 0.071944 0.194252 0.120747 0.074112 0.120155 -0.006442 0.360008 0.438565 0.437133 -0.449087 -0.187756 0.241562 0.141244 -0.091907 -0.246700 -0.786831 -0.628536 -1.041775 -0.649095 -0.689465 -0.747194 -0.213061 0.125817 0.243749 -0.432711 -0.199498 0.042420 -0.297328 0.266031 0.325771 0.375536 -0.059212 0.049777 -0.003717 -0.485099 -0.330067 0.489841 0.346277 -0.435702 0.353746 0.331720 -0.163678 0.172208 0.061284 -0.467031 -0.280178 -0.627314 0.316279 0.070165 0.035198 -0.298141 0.427968 -0.010818 -0.456037 0.197494 0.057704 -0.155535 -0.260085 0.292070 -0.374334 -0.434315 0.167607 0.066455 0.115462 -0.336110 0.081355 0.285395 -0.346269 -0.043736 0.393892 -0.419295 -0.109506 -0.149359 0.399727 -0.194843 0.166886 -0.044536 0.033807 0.124454 -0.367972 -0.262083 0.378242 -0.434641 0.227100 0.422205 0.262853 -0.215196 -0.233329 -0.497233 -1.875501 
EPOCH 3
-0.421796 -0.143882 0.309967 0.220056 -0.190445 0.146948 0.341846 0.327993 -0.355009 -0.392509 -0.442271 0.272740 -0.249014 0.228905 -0.004924 0.079493 0.297466 0.328217 0.005171 0.049553 0.315074 -0.362621 -0.497908 -0.460164 0.293964 0.374681 0.488152 0.128544 0.427628 0.422180 -0.101270 -0.494167 -0.221702 -0.291303 0.225888 0.088933 0.408233 0.106615 -0.099162 -0.539662 0.060832 -0.100332 0.060579 0.032578 -0.191005 -0.136229 0.005769 0.313417 -0.478628 -0.490816 0.049359 0.411742 -0.351745 0.051591 0.451578 0.442219 -0.073728 0.439730 0.070763 -0.146099 0.361910 0.469493 -0.140266 -0.348892 -0.313096 -0.324649 0.258446 -0.579619 -0.267367 -0.839287 -1.009575 -0.733760 0.044251 -0.072107 -0.500481 0.121171 -0.602709 -0.020842 0.143720 -0.422054 0.214619 -0.130594 -0.415294 0.419630 0.420998 -0.463716 0.361849 -0.152730 0.476014 -0.067388 0.204183 0.294107 -0.141644 -0.108517 0.873859 0.142051 0.043498 0.422899 -0.174708 -0.127644 -0.409399 -0.957788 -0.851687 -0.273313 -0.161863 -0.257481 -0.459809 -0.194424 -0.560516 -0.446936 0.205700 0.415136 -0.023147 0.290405 0.334766 -0.102149 0.319246 0.226000 0.335605 0.517313 0.025560 0.856257 1.103356 0.922005 1.126080 1.205614 0.737491 0.759422 0.196345 -0.648758 -0.341491 -0.145395 -0.511776 -0.728687 -0.545533 -0.281252 0.146929 0.400736 -0.136476 -0.390906 -0.462385 -0.430776 -0.475769 0.013247 0.388107 0.482911 0.692986 0.791368 0.916347 1.194010 0.902641 0.596438 0.139837 0.391043 0.561781 1.004784 1.698348 1.359482 1.041184 0.269329 -0.495319 -0.698308 -0.986652 -1.063408 -0.755112 0.369420 -0.241320 -0.234342 0.321211 0.122207 -0.091851 0.360663 0.198507 -0.101374 0.334633 0.676381 0.678046 0.428489 0.128061 0.603173 0.435804 0.368135 1.054831 0.213023 1.185104 1.479640 1.258785 0.900913 -0.834501 -0.290126 -0.583608 -1.275424 -0.400860 0.353206 0.023838 0.440930 0.317282 0.282521 -0.146331 0.144480 -0.157757 0.236201 0.681986 0.539766 1.140858 0.551452 0.292614 0.303860 -0.203035 0.979623 0.476272 -0.237394 -0.195635 0.136708 0.184605 0.422072 -0.070287 0.092453 -0.598367 -0.730420 -0.107381 0.173886 -0.096717 -0.133286 0.175580 0.427749 -0.074071 -0.005170 0.204960 0.423996 0.424583 0.651215 -0.177985 0.178809 0.596445 1.198443 1.431032 1.165335 0.712649 0.683183 0.689078 0.234536 0.449759 0.082040 0.607953 0.497971 0.608387 -0.153818 -0.000353 0.376583 -0.011268 -0.069306 0.141256 0.392015 0.374194 -0.182978 0.282796 0.046268 0.761206 0.233580 -0.480881 0.427521 0.373504 0.617144 0.291167 0.045270 0.778622 -0.453975 0.712694 0.041214 0.031775 -0.060728 0.028763 0.298875 0.891553 -0.035365 -0.273976 0.128912 0.069238 -0.415300 0.019442 -0.442338 0.054121 -0.335648 0.385865 -0.435300 -0.292313 -0.874026 -0.704544 -0.987383 -1.316874 -1.549430 -1.929474 -0.964145 -0.459623 -0.530301 0.415267 0.123380 -0.064625 -0.285285 0.489581 0.415737 0.808745 -0.454624 -0.470532 0.257122 0.017900 -0.049078 -0.105713 -0.424714 0.035622 0.417970 -0.869802 -1.721930 -1.987725 -2.652949 -1.933969 -2.067200 -1.778505 -1.888063 -1.888473 -2.226683 -1.847628 -2.080419 -0.675045 0.202368 -0.161771 -0.023500 -0.456735 0.217799 -0.210634 -0.275475 -0.366570 -0.194094 0.380117 -0.105186 -0.383545 -0.113527 0.345736 -0.006102 -0.661182 -1.701518 -2.810166 -2.851490 -2.916953 -2.679149 -2.071746 -2.540547 -2.674402 -1.976975 -2.548983 -0.887454 -0.243991 -0.350462 0.203797 -0.311985 -0.846314 -0.566199 -0.990176 -1.395358 -0.303631 -0.375418 0.379005 0.379583 -0.108461 0.222463 -0.225681 -0.068185 -1.017326 -2.069610 -3.035816 -2.613590 -2.252796 -1.660745 -1.389728 -0.851494 0.172616 0.089477 -1.238633 -0.707087 -0.667984 -0.174889 -0.065461 -1.744038 -0.919688 -1.113995 -1.002692 -1.009027 -0.403687 0.191247 0.331085 -0.280621 0.010515 0.095389 -0.403834 0.268574 -0.738994 -1.442484 -1.867825 -1.502269 -0.995848 -0.671358 0.312670 -0.011577 0.284022 -0.292549 0.042501 -0.513431 -0.785792 -0.071125 -0.460726 -1.641790 -0.853438 -0.912036 -1.133713 -0.694556 -0.614818 -0.030350 0.064532 -0.305437 0.211980 -0.404490 -0.100466 -0.267315 -0.016871 -0.333514 -0.923764 -0.970188 0.227327 -0.289697 0.039143 -0.352821 0.047669 0.206262 -0.649161 -0.236942 0.655373 0.330586 0.002765 -0.666490 0.022809 -0.270843 -0.197093 -0.145792 -0.615955 0.159608 0.410895 0.231695 0.148379 0.437080 0.363462 -0.010774 -0.149711 0.316119 0.392146 0.198193 0.228814 0.346762 -0.672440 -0.401148 -0.352186 0.074222 -1.056567 0.010084 0.543472 0.104624 -0.487743 -0.557900 0.453419 0.271487 0.247878 0.576915 0.026449 0.848648 0.477803 -0.060053 -0.318053 -0.292336 0.472498 0.645977 0.667168 1.641071 1.210128 0.497810 0.170360 0.531559 -0.261919 0.096541 -0.062352 0.019735 0.420008 0.702598 0.763507 0.396351 0.370524 -0.142489 -0.055013 0.553777 0.275268 1.174758 1.058157 0.502075 0.109692 0.330077 -0.326535 -0.373804 -0.400139 0.204476 1.107280 1.519185 1.952307 1.377457 1.076645 0.502816 -0.470058 -1.311120 0.046561 0.397692 0.250257 0.446893 0.163856 0.330663 -0.322736 0.166844 -0.492685 -0.569819 0.132548 0.857948 1.227647 1.341985 -0.331647 0.424560 -0.112749 0.159518 0.216476 0.423103 1.735339 1.961461 1.861667 0.612695 0.767633 0.474150 0.230277 0.349741 0.397347 -0.320227 -0.132620 0.038608 0.321187 0.570502 0.322055 -0.020569 0.225727 0.573719 1.673492 1.155899 1.790355 0.534871 0.504065 -0.353652 -0.125650 -0.439442 -0.443156 0.438994 1.548389 1.789595 0.461455 0.718289 0.634016 0.676939 0.288024 0.272828 -0.255658 -0.635409 -0.365220 0.475525 -0.312873 -0.694861 -0.045556 0.048774 0.609769 0.867367 1.356776 0.923821 0.594764 0.224421 0.446705 -0.285902 0.164309 0.275986 -0.139554 -0.332699 1.039369 0.633543 0.461355 0.521127 -0.026569 0.554144 0.004396 -0.043637 -0.629334 -0.031081 -0.609882 -0.444830 0.002983 -0.044809 0.078703 0.280742 0.234346 1.605425 1.528122 0.694542 0.243273 0.635457 0.323247 0.491716 -0.252598 0.173592 -0.294186 0.461690 0.176830 -0.049385 0.327898 -0.286720 0.343543 0.476691 1.409711 0.161798 0.372301 0.262420 -0.535301 -0.891983 -0.368975 -0.672269 0.802179 0.534619 0.543089 0.293420 0.780835 0.062398 -0.068544 0.100116 0.413417 -0.404987 0.037542 0.225209 -0.413271 0.279536 -0.266898 -0.897887 -0.625035 -0.760059 -0.869635 -0.613094 -1.045177 -0.268953 -0.438026 0.008128 -0.756916 -0.525180 0.334019 0.350615 0.250783 0.179014 -0.498430 -0.430362 0.445593 0.367141 0.409991 0.406789 -0.214104 -0.181591 -0.056425 -0.300687 -0.086578 0.480666 0.409108 -0.221899 0.024487 -0.654939 -0.484226 -0.755863 -0.856406 -0.415839 -0.740799 -0.283697 -0.213748 -0.321441 -0.764156 -0.658899 -0.423307 -0.937609 -0.749133 -0.660391 -0.069652 -0.029319 0.238202 0.138846 0.074112 0.120155 -0.006442 0.360008 0.438565 0.437133 -0.440679 -0.187495 0.235116 0.318770 0.120497 0.063603 -0.290962 0.058634 -0.478648 -0.111945 -0.428726 -0.438906 -0.172148 -0.316033 -0.328349 -0.987005 -0.710259 -0.353720 -0.457988 0.171025 0.302860 0.375536 -0.059212 0.049777 -0.003717 -0.485099 -0.330067 0.489841 0.374909 -0.411075 0.311817 0.335914 -0.071728 0.337168 0.417419 -0.187522 0.029323 -0.353988 0.306677 0.142065 0.203617 -0.246802 0.341964 -0.112787 -0.533120 0.124466 0.055435 -0.155535 -0.260085 0.292070 -0.374334 -0.434315 0.167607 0.066455 0.115462 -0.336110 0.081355 0.285395 -0.346269 -0.043736 0.393892 -0.419295 -0.109506 -0.145624 0.425929 -0.191432 0.166998 -0.044535 0.033808 0.124454 -0.367972 -0.262083 0.377355 -0.435236 0.227100 0.422205 0.262853 -0.215196 -0.233329 -0.497233 -3.405329 
